function [y1] = myNeuralNetworkFunction(x1)
%MYNEURALNETWORKFUNCTION neural network simulation function.
%
% Generated by Neural Network Toolbox function genFunction, 02-May-2017 22:20:50.
%
% [y1] = myNeuralNetworkFunction(x1) takes these arguments:
%   x = 108xQ matrix, input #1
% and returns:
%   y = 26xQ matrix, output #1
% where Q is the number of samples.

%#ok<*RPMT0>

% ===== NEURAL NETWORK CONSTANTS =====

% Input 1
x1_step1_xoffset = [217;0;0;0;0;0;0;0;0;0;0;0;194;0;0;0;0;0;0;0;0;0;0;0;200;0;0;0;0;0;0;0;0;0;0;0;198;0;0;0;0;0;0;0;0;0;0;0;155;0;0;0;0;0;0;0;0;0;0;0;195;0;0;0;0;0;0;0;0;0;0;0;188;0;0;0;0;0;0;0;0;0;0;0;200;0;0;0;0;0;0;0;0;0;0;0;203;0;0;0;0;0;0;0;0;0;0;0];
x1_step1_gain = [0.0277777777777778;0.0869565217391304;0.142857142857143;0.117647058823529;0.125;0.2;0.0769230769230769;0.0869565217391304;0.166666666666667;0.117647058823529;0.0869565217391304;0.166666666666667;0.0210526315789474;0.105263157894737;0.153846153846154;0.0952380952380952;0.0952380952380952;0.181818181818182;0.1;0.0952380952380952;0.181818181818182;0.0769230769230769;0.0740740740740741;0.166666666666667;0.0224719101123596;0.111111111111111;0.285714285714286;0.0740740740740741;0.0869565217391304;0.166666666666667;0.111111111111111;0.0909090909090909;0.25;0.0714285714285714;0.0833333333333333;0.153846153846154;0.021978021978022;0.105263157894737;0.166666666666667;0.111111111111111;0.105263157894737;0.1;0.0666666666666667;0.117647058823529;0.222222222222222;0.105263157894737;0.0833333333333333;0.1;0.0149253731343284;0.0740740740740741;0.125;0.0689655172413793;0.0645161290322581;0.142857142857143;0.0416666666666667;0.0740740740740741;0.142857142857143;0.0408163265306122;0.0740740740740741;0.153846153846154;0.0212765957446809;0.133333333333333;0.25;0.125;0.08;0.153846153846154;0.0588235294117647;0.0952380952380952;0.222222222222222;0.1;0.105263157894737;0.105263157894737;0.0198019801980198;0.0833333333333333;0.2;0.0588235294117647;0.1;0.2;0.105263157894737;0.1;0.222222222222222;0.08;0.0833333333333333;0.2;0.0224719101123596;0.0909090909090909;0.153846153846154;0.0588235294117647;0.0869565217391304;0.181818181818182;0.0769230769230769;0.117647058823529;0.166666666666667;0.0833333333333333;0.1;0.181818181818182;0.0232558139534884;0.0869565217391304;0.166666666666667;0.0869565217391304;0.105263157894737;0.2;0.0689655172413793;0.0909090909090909;0.153846153846154;0.133333333333333;0.125;0.25];
x1_step1_ymin = -1;

% Layer 1
b1 = [-1.4857219883126396;1.490178886220312;-1.3977338899521967;1.3466212987652018;1.3137782264664963;1.271732776517172;1.2904874756768696;-1.2339132725867941;1.1936563564655296;1.2314032011780238;-1.2331146419411285;-1.1121058111552293;-1.1295284553029699;1.0829254683014748;-1.0537126090512772;1.0484724024222836;-0.9892029082706566;0.97623227148404768;-0.91852538824483987;-0.91177933543033485;0.84402997869535079;-0.7726149858500202;0.85413013460359621;-0.68961152206452003;-0.72458199645289734;-0.67948805842672411;0.70306282153684641;0.59218332511462402;0.65619824675148031;0.63065062744517519;-0.57452572059095575;-0.53431339333967942;0.53317758587720721;0.49041528667144507;-0.44259870355831366;0.43351480547546484;-0.39048195499434435;-0.38676300017149473;0.28516452559447714;0.26117006075513077;-0.26525519753892185;-0.24166867519502711;0.22829118083360073;-0.22256279418249239;-0.19438146545198595;0.1417840299373222;0.10940311801780923;0.048676763677290603;-0.076189252015467127;0.042093552057776963;0.0035087625060053265;0.037763448947397027;0.03038518865983976;-0.08885767142702497;-0.13251652988902188;-0.18324265354467281;0.12943777263041875;0.2100188759822785;-0.21675832605497891;0.30542472933186626;0.2365150733062043;0.32615688229882966;0.40195813748649173;-0.34119337862879412;-0.45503195458186757;0.48151296289732798;0.4443909822865893;0.47119615883374882;0.48560409002839056;-0.50126148677776439;0.62957388837436401;-0.66139227280458213;-0.70033469378470037;-0.62482260284910796;0.75267255049306625;0.77465884996555967;0.82307350032291104;-0.813532127264739;-0.80415477102202892;-0.85775340286071189;-0.83790298699251742;0.96316647810031497;-0.88578273297315036;0.96895176858747001;0.96466140585413662;1.0389371314851894;-1.0834272314006101;1.0849401353519779;1.1159670758996143;-1.1605196974310372;1.214134698195245;1.2784802356638514;-1.2598625375865891;-1.2901831327158322;-1.2846134708630326;1.3268515094772395;-1.4169708758363995;-1.4000120281832331;-1.4280666479666431;1.4371502934271891];
IW1_1 = [0.037108826002881734 -0.1538721535099043 0.15260625010631099 -0.031752323541049399 0.24777911663266186 -0.11029292033424636 -0.13500174076741558 -0.077012186966367552 -0.051313390225138804 -0.10234969353992576 -0.10394392300682133 -0.01510709800166736 0.23335055338340774 -0.077773839806073039 -0.033096927979137797 -0.20946927825070519 -0.026380907590753479 0.18592323262717347 0.18393501022162148 -0.078160027947033819 -0.2274628285907363 -0.0045194775903214775 -0.094219668455604089 0.18490817729597542 0.061063882919270333 -0.1723733848008053 -0.030560738586185368 -0.21336108232626008 -0.21530243028782756 0.016625044495976911 -0.1620506200329456 -0.0086821117124574691 0.14147709352974192 -0.068932120457279408 0.19107923855013345 0.23070364221454931 -0.01353856843030516 -0.093136626621272395 -0.22115564614929364 -0.16499970330309049 -0.2176010272478193 0.069668342299518668 -0.061224107472644125 -0.23941400127659815 -0.1593189480192343 0.08696933593168743 0.15907161596418393 0.21079218665116903 0.026346871048430972 -0.18701661842381501 -0.038565874451842036 0.10874883662458598 -0.13088846240403751 -0.012426080283440548 0.17097633270552018 0.093553116463661851 0.038930082259364486 -0.23841032916880378 0.013718578633880513 0.18041577425263977 -0.26657626409671681 0.066944507555238605 0.037440804747217553 -0.071983050933598691 -0.10036313952816975 0.10630188040273217 0.20634255117219194 -0.096841439434957655 0.1697073796348291 0.16679897354527068 0.12276558566909267 0.09285408755268694 0.054975813329762632 0.25729994439508586 0.027728219687151664 0.10968559310741401 0.20870198706680945 -0.0074304816763846185 0.20059525204796738 0.083108596461918011 0.18919578464876277 -0.023412308167525916 0.15579335419559284 0.049946635545915469 0.033552990933596837 0.022137038691110271 0.041878857893251173 0.13942649587078423 -0.072867033339498441 -0.0011510687509972851 0.017556691391563677 0.18579031894066361 -0.12603536182826014 0.10354223470301842 0.234323840004246 -0.048946632756218182 0.11186999068067924 0.15568872078404852 0.20181776978796187 -0.115304024520464 -0.06014209350251689 0.11090431503433892 0.079540698444390115 0.19438351082256566 0.013655728234053239 0.20778186281805161 0.24499033169771142 0.19804490223652235;-0.15056310368464645 -0.2706922313311193 -0.31864880529943945 0.090051551597585974 0.37161121281627252 0.19893033236093535 -0.49300043582555331 0.077492058250222304 0.15497276163983262 -0.043180561571244523 0.093479629156459049 0.083098395775073983 -0.10560816251094537 -0.06297216254599293 -0.088098822547437589 -0.21533710116374682 0.27308940642188556 0.017224144722483119 0.089987515774622009 -0.075071340525298749 -0.13861703918989618 -0.28356248694130737 0.27888917657280421 0.34085843419106931 -0.2061459203099372 -0.26586845436071271 -0.17797505111887632 0.015887544687089607 -0.17084987032628754 -0.0095432768061592833 -0.15367081867466184 -0.30116168510752889 -0.0069930379147111581 -0.13447655106425996 0.2009172589886471 0.070938143127189851 -0.15510801932122345 0.023573393332960654 0.046279345696701592 -0.1486399076203225 0.21278690905484568 0.12108272661711895 -0.021279328570451572 -0.26615102001915419 -0.12448090733831094 0.027483349292912518 0.19293629414020083 0.035415012401783789 0.12898691690043565 0.068620737559858799 0.058829648213526008 -0.36856465245988196 0.06009788350018623 -0.016115919006330245 -0.14393756006771852 -0.1507433006429901 -0.055675658516748383 -0.31692965682690205 0.40824135194955863 -0.0095054747870093551 -0.15986173437461837 0.25451267489229051 -0.026100838377658024 0.089144634034960091 -0.12580810250328725 -0.038558194524828615 0.19898432966576091 0.086192221203166206 -0.011026752017360237 0.17543703327959212 0.067066128197244765 0.21612566539050601 -0.075025354686640122 0.061415525265916385 -0.13401760873410842 0.26540926041297525 -0.2444196249937107 -0.14070206697638363 -0.15988625201286077 -0.053014962703288801 -0.013068803117013 0.087193782663895755 0.13928524676151821 -0.19512145767335423 -0.17298117831243906 0.01381916647391207 -0.15721050022740454 0.3659909238063771 -0.25627349393522053 0.086886510151866103 -0.39297893259199196 0.17841494158202614 0.069213363886333992 0.15408978899346296 0.10947322898158179 0.0045365573461088864 -0.063310202331077536 0.31418179509335603 -0.064551217172763922 0.33106996285215307 0.22800423869218661 0.028504824160388846 0.071384886871586992 0.082758016298925208 -0.1311564882713746 0.36337483671912341 -0.12771625995902311 0.064082936740024896;0.15115506847373006 -0.13646747218180419 -0.067565873142735669 -0.013806717996048917 -0.018594396887561405 -0.083664399794489988 -0.053122885013500182 -0.18182613718461638 -0.023057030258498742 0.13580519490063669 0.38670145214345181 0.059135808588965298 0.21377418374777959 0.13590359671097574 0.028993710721148553 0.20167316716939795 0.0021586682578277694 0.09849412007679656 -0.41580998932573182 -0.088156311703354487 -0.00085684593839755428 0.046581883568753091 0.067695194987459531 -0.15240355784096385 0.22093003851084858 0.17558681582258645 0.14565516841522588 0.17886892861941089 -0.093055253736364904 -0.042754544780661666 -0.26983158817475944 -0.13415181965760717 -0.044262531395298031 -0.24969306389106821 -0.08393673184602185 0.078113103682921486 0.25039758193674777 -0.091655465019540028 0.21080341369317526 -0.016510036052500524 -0.089268239471397101 0.22840399503074646 -0.15229427704760506 -0.23652763427678355 -0.032636305607963559 0.15890668744756617 -0.33257742514079586 -0.24694113090491449 -0.042889387100104287 -0.269412708104104 -0.22252937065075515 -0.1781047473500493 -0.14835718586227734 0.32193142724492779 -0.11028801618237423 -0.20661758392588681 -0.090165405846593619 0.10002513885439496 0.013827254927213322 0.016794868085329196 -0.4469946860666239 0.25200636444944741 -0.11191404725376804 0.1543403637098385 -0.070955421303872238 0.12560867070110859 0.095405465344300541 0.012479277468964458 0.39161549592768297 0.27766325522117913 0.10633909638758959 -0.17326608081625561 -0.099268002341334066 -0.03172817440493033 0.054350220908388897 0.11208632209278836 -0.031037211205126064 0.2261536261598657 -0.61654299256162004 -0.18369121521913021 0.014883834267544324 -0.11405604083132916 0.10557637847405266 0.15640528828128494 0.028441530438759102 -0.26797348560851098 -0.07425827094245592 0.10770897469533164 -0.23938762646069753 -0.13915783150111691 -0.069196099393848284 -0.26072084651115301 -0.20693292846344249 0.068841106602376259 0.21268528557913341 -0.16279171742111129 -0.3174916009564514 0.027836124353045704 -0.17350659814152788 0.15597430596447356 -0.18781429155097018 -0.12772631530401402 0.076964215891271281 0.23848897316170511 -0.048413351467393714 0.069654847847852919 0.025893031171764662 0.0065252970153660446;-0.13472049621069163 -0.063320939289639208 -0.061365632707981316 -0.044851851641098998 0.17074591646087139 0.087539654086485771 -0.16086661047610193 0.17333404359574378 -0.073732750215735263 0.13238307555575962 0.093649465051905939 0.29990587318273992 -0.13476499830137142 -0.014046266368989806 0.042253994157864141 0.00082789604551264991 -0.016966409280843035 -0.055706695545694837 0.10754959382297935 -0.087827036567208305 -0.27588670232954499 0.16595754999090889 -0.044063110912633201 -0.30760486437176943 -0.15095629164164764 0.13438225880529947 -0.11771966499750305 0.056823392340958415 0.1788055368967772 -0.089284618289338855 0.17328262894653659 0.070342401708569396 0.054749584059079752 0.07974397451967781 -0.091808148662918823 0.16195202723664001 -0.12468946346447042 0.15122141588608537 -0.14647382362428407 -0.32590701980367792 0.01768596642228247 -0.13744152511450669 0.0023001436815717844 0.17517266806640291 -0.11249004497628176 0.32812684095536976 -0.24279263444120611 0.19655970635546421 -0.34699868754216751 0.21324397016012472 -0.30177417435578802 -0.040853944326936911 0.030145703478612371 -0.24954532094277343 0.28758026558187716 -0.3134623834718625 0.20493510053420155 -0.038831583186577673 -0.094197993229917731 0.13706111706590299 0.0054392842157231962 0.023423586774518255 0.14108294566094487 0.093372434039461244 -0.24036340443428938 0.20503269165604718 0.30363692301841433 -0.056526883752411369 -0.027658384059041242 0.094824193978360616 0.14380846563810756 0.039577567550563346 -0.081669676438337641 0.1942774830496897 0.03089199721522198 -0.23767844380058384 0.087152370100479146 -0.14856911943524753 -0.23355267713824782 0.078298017211337292 0.17511460587372266 0.27323740986623746 0.17420117800065354 -0.1629979426355701 -0.26124447388459138 0.18808071396725043 -0.12103094532077048 0.10662117417351066 -0.20409962137860799 0.057296511900387391 0.13707358885895299 0.065200297875241578 -0.039456724155151425 0.21298315009836663 -0.0063344741256253596 0.2603295276631199 0.063154047046849571 -0.31027581495834161 -0.13228393906644986 -0.22719096348555959 -0.094273296044669469 0.052378221655134956 0.067164728759624315 -0.36951180479808515 -0.0044119663892296657 -0.09557644317572607 -0.07698701199137592 0.061050552751763312;-0.11717616708689584 0.10076799387333528 -0.0044016216456337015 -0.043874705832534486 0.12467491821130929 -0.1679854430618557 -0.038397543665839542 -0.058061579007087478 -0.028123383220696751 0.097683696535868794 0.028351299422360043 -0.032594441955063926 -0.018073821522216118 0.16211808537445332 0.14857495199041679 -0.13581251749122886 0.23364133154988567 0.081355433532009871 -0.20655578203578728 0.090568376308343523 0.00055856689829943866 -0.1849460300476363 0.052128896901727985 -0.07280220413012857 0.11414286470706268 0.24241030109578143 -0.037403253237264608 0.10379758177027151 0.018752937334272215 0.1165798490297367 -0.23656137998233659 -0.16354110470566369 0.14574807395103545 0.14324312753369176 -0.15498550160432145 -0.11903260212474068 -0.1135876957756454 0.13556100934544149 0.17986546548968102 -0.0090635971894597791 -0.054652404248732911 0.12658545849122727 0.026331002388738416 -0.2889431145013911 -0.039554882580452561 0.074501144802139832 0.19288347423268423 -0.14003149051086525 0.012356796586389437 0.24657599510564296 0.17481669987126106 -0.029442474925480633 0.22752863227308681 -0.036652278996349687 -0.25777646949883604 0.10120047461417281 0.010812633769887954 -0.23391719524884244 0.21239055328970097 -0.17262147721217597 0.15461993090178036 0.15319289505674044 -0.03617581163181998 -0.016503457666810589 -0.1945747832621143 -0.22992654269806997 -0.080071263943112606 0.13167672328891694 0.0582000896610246 0.11527456582992633 0.15072822895938776 -0.15613074014975917 -0.18811399843214344 0.058282643121542965 -0.19637738864370427 -0.24836796903448774 0.102572866658787 0.015736790430524367 -0.20680591370638493 0.20099996898882821 0.038823220205115867 -0.24663411446398351 0.097273038875174092 -0.076628212909568574 0.051894159144728169 -0.14549516130378395 0.19012925571721734 0.10709594536103917 0.024585269858612143 -0.085690953699164504 0.22793076277445487 -0.15032689149263523 -0.040232402194317125 -0.26480796914849491 0.18383365720997685 -0.1234133234699442 -0.10463985915736435 0.15122955372711755 0.23031237057946471 0.14935945173629631 -0.16581040394342433 0.1041837885862875 -0.25873518949710206 -0.16323976988404942 0.12649985560866925 0.16563110970820236 -0.22611701304317722 0.15698757486027295;-0.037971312921269637 -0.15697287683660716 0.17923563330760517 -0.10348186711557826 -0.052962930511202398 -0.01602772012558893 -0.041249585274274442 0.24399103007808837 0.25409706251863579 0.12320886442020522 0.18550411157427138 -0.064621930092338881 0.062627694317964319 0.18143636495415139 0.068220559764250788 -0.015013714142734242 -0.10948618614855281 0.13092031730594733 -0.13622676722678978 -0.13126105377422723 -0.057301379400765705 0.1408226929925856 0.2104505069840964 -0.15780203435320411 -0.15254135788831713 -0.17098875882096684 0.24386594701062167 -0.10045098151975718 -0.092336272059369146 -0.18240260314430812 -0.17727797864840888 0.072969982026147837 0.2368613561087167 0.17576522669649278 -0.10481827231926953 -0.032256341813019437 0.25341060992527564 0.24061894882285281 -0.19097265285696621 -0.11765253373607695 -0.11471063315014363 -0.11704235323955207 -0.15349246494724972 0.14513947159203533 0.16589108797163016 -0.18995909687362153 -0.21132539289834848 -0.025448897526282179 -0.098116476217294371 -0.0024310668277572169 -0.21206593501981363 -0.24686276845007718 0.00021319762453152896 -0.1511399597369355 0.068518202702016195 0.077691179128051277 -0.1736811938871313 0.053821586664997263 -0.042292945262182698 0.11655414611473668 -0.098709837755026578 0.13151338162184184 -0.19681720634013117 0.012628479440007856 -0.1699061809022453 -0.052075949498327161 0.067544283114034515 0.22140192000432871 -0.1840296131555719 0.055506477358183703 0.2373211315356703 -0.17199806468455464 0.1160566127523314 -0.028753652238229281 -0.046844027264102188 -0.10736502811435715 0.19385533979541045 -0.077316298844866196 -0.058837517017225879 0.18102594668404334 0.010521754176371679 0.17099876775543527 -0.067288861689708684 0.057870522502311825 0.019622425645675984 -0.069749664993036975 0.26654800047806393 0.030755121765033849 -0.1813922426598614 0.014779753840564494 -0.083560582036679029 -0.15282371719782747 0.091545384267282037 0.066357234612566457 -0.13475196485748778 0.090931858046095049 -0.039957866805647634 -0.15224811926321449 0.037396676839116919 0.065332195763267514 0.11669453007309362 0.11451843830366015 -0.13662964226913235 0.066894074893875333 0.20914039806909202 0.27599415935801552 -0.17397135505734701 0.22847198372684421;-0.20137649022173851 -0.026774486333340234 -0.064777323845200671 -0.032578232253688305 0.061867553459895426 -0.17493975777229401 -0.19207039019443337 -0.044285496273165845 -0.13600875522557596 -0.0071893623761921273 0.15599286348544825 -0.037775787126239704 -0.28194771521637818 -0.046997238989285116 0.23420096996978387 0.11839283909540785 0.039778774106852294 -0.23091186497660166 0.15740157178673567 0.023588315752206851 0.090329596695514103 0.10707535636198398 0.1489291624558666 0.13758107584795445 -0.30844793808717941 -0.093479789429290958 -0.010572954805117381 0.12683149442948569 0.055950445333451865 -0.1733924202642963 0.022960702497191406 -0.05914325682491553 0.16239494153229056 0.25505169206238509 -0.040373544807930019 -0.089915213635087074 -0.12484267922842517 -0.23993230844804894 0.17704516261019104 0.4008570784735534 0.091893811928339009 -0.03977628279639036 -0.055615256049901682 0.084841326586778384 -0.18318367772571137 0.090890657905971561 -0.1835090708243183 -0.038689951729788445 -0.15936022927322729 -0.2058972546170299 -0.09383237776989703 0.28478848127349704 -0.011921981275881996 0.089010406977004089 -0.23425122781712923 -0.22344971259920682 0.0086887523267150067 0.30383641912908038 0.23540542868052666 0.20698079521847304 0.10178795959319407 -0.25948780224498852 0.072146271522791947 0.10342642451898287 0.27748114410174735 0.16352233323162657 -0.21986096432111932 0.19894153408692156 0.046186125316717869 -0.11110283961324736 0.041761784775182414 0.14265697663818336 0.23538846218887122 -0.010937884922424909 -0.23387312466911594 -0.09100573393316691 0.22882149509694799 -0.049943753848202835 -0.028694259748406958 0.028122441767722283 0.18583749414316864 0.18812958903239815 -0.12920364674468945 0.072665426711056857 0.25221363450569145 -0.067069723778922813 0.095886110030791144 -0.028742252482608071 -0.21790059756066177 0.16472040877840413 -0.13456005216063199 0.11062342660437854 -0.10205645326681013 -0.24355671430016609 0.16704993133959561 -0.2228225036350607 -0.024897930339987592 0.074531144746110028 -0.12660356938714101 0.16684219525218816 0.045827329176754826 0.10762125594259243 0.15953562889867637 -0.035187938139311571 -0.020782594089606008 -0.23452664492665731 -0.10299264450170592 -0.26882306538771639;-0.28585925701647741 0.037631065818844012 -0.2670520598637669 -0.025139824118821118 0.12542394812392704 0.31525382452562684 0.007076505210279996 0.20711737262899765 -0.069928314181307141 -0.15790065665259423 0.20515211120129617 0.24214120410180748 0.10979954771465425 0.19616586772538111 0.31574535648848084 0.12626295309236116 -0.061592757401308346 -0.12539383509557633 0.46464385834336591 0.41737384973202046 0.1091216563453527 0.15085964744344083 -0.3009639035266985 -0.26379028205470023 -0.22594952829135173 0.16393038885204803 -0.006673919780221851 0.062137390108518112 0.008561663049058298 -0.18838153429192742 0.30972089413606047 -0.043230750895430325 -0.15311152183787011 0.16612002540637397 -0.28238834514610878 0.00030125244268265074 0.27979418294101371 -0.035516749677215825 -0.2263080375428202 0.1150484663108345 0.20371817788009988 -0.019992286022625219 0.086667553560499905 -0.056205868684985914 0.051132675054903043 -0.25613941080978947 -0.22940563545624351 -0.1534928283559748 0.19220792802613726 0.18114468201359865 -0.08457709427805897 -0.078986877663011268 -0.38764645278643373 0.079656724403190632 -0.12323166644363677 0.10730073791249715 -0.051558016783267331 -0.26585348943903669 -0.29215353548040485 0.0095632067980881419 -0.12803201300755279 -0.0075498565623788715 -0.20836623345658617 0.28912710247984846 0.11133035890768722 0.00751452583578841 0.4314820284904502 0.036050867061275395 0.1151784081006757 0.13975706212449718 0.25316365491360027 0.097801341361365188 0.31020371777407335 -0.20287908027018786 -0.31117775095328576 -0.16717978404658748 -0.14521667190930795 0.034162605293346304 -0.1720847296844879 -0.15479909385580667 0.082434067172491202 -0.13956689505330636 -0.11534335474314127 -0.11288503647834162 0.32564969303090907 -0.13953107131780645 0.002023907710777483 0.077091149432180886 -0.10052415415473966 -0.13048335972418665 -0.19191008934363521 -0.3559268513638924 -0.18854193263318936 -0.17427737794638898 -0.21698172740355962 -0.052028593361849326 -0.032150641100468044 0.17780993793863484 -0.052688703217029183 -0.12628216480607671 0.14982578386318385 0.25753285302382933 0.27996553676289859 -0.00078473397362010232 -0.030192055574590052 0.079557748177605012 -0.084030040551488314 -0.19693616407785625;-0.17565209507987986 -0.15654872584385668 0.18754357931198909 0.30850101789108864 -0.052056215694820523 -0.082374281252606499 -0.24267636139053472 0.11025035569331521 0.12616498917187652 0.29728533718847072 0.11660331454213366 0.13483758212978322 -0.11822946961250236 0.1173124230543905 0.052475383631353199 0.18230012559287584 0.055574754191544833 -0.057822397600456182 -0.092556172710555398 0.24703953238069498 -0.060235327405663126 0.34614353273823883 -0.16553335604778649 0.12493475447124854 0.040173005911624676 0.24813794951093679 -0.1335364112087481 0.091954352811914761 0.14039002263330555 0.20509959485596149 -0.17648933982701481 0.1579413450106672 -0.14546827552832561 0.13869298845668837 0.14849948141682737 0.0048014964803624908 -0.10229518268833014 -0.11655754267746474 -0.17026053550641382 -0.22834474570342744 0.089118607370214056 0.13104681186888015 -0.033775460580084959 -0.08051995064070995 0.14917184742081355 -0.13413517617437098 -0.12169148693737963 0.03612001619783306 0.028505488813801723 0.058337144697087527 -0.12678579901747364 0.11507755087871843 0.12678365197515468 0.0069845506324154481 -0.011195797866858676 -0.11663280121686193 0.169156494642665 -0.00054441467370821683 -0.071366561648841143 -0.13415208467210013 0.030097831192360758 -0.011395613889843051 -0.11245294383489923 0.24024108635345329 0.088848784485904414 0.16432585054029414 -0.20166808757262888 0.16554643074631828 -0.034556529504163241 0.14844885272751709 -0.15594321636537342 0.12663290625742393 0.20157263910328699 0.14914087070928359 0.0084335941251689785 -0.17349233058120414 0.092505268922490252 -0.18151395627877348 -0.37178971628034885 -0.10797090236644448 -0.20911760398380883 -0.027369273249959129 -0.012148239598961982 0.023518643298961063 0.12078702317937834 -0.011725319063835693 -0.088702863101018881 0.03329583975107888 -0.14363443450723162 -0.0021530788067404038 0.2194708167035932 0.20800699124825062 -0.13580663385940048 -0.21924427534956897 0.040190636751177164 0.18757270489812705 -0.24466110144005618 -0.037902010903036999 0.22022516656367699 0.24364943325810631 -0.16487653090209473 0.10186197578312359 -0.087944070479953201 -0.012403021080844581 -0.20157407164800639 0.25013622389237739 -0.12057693543379096 -0.067903661171833801;-0.24714785418219712 -0.11559979510289066 -0.085620243149954478 -0.15183136105577191 -0.010829533867750563 -0.02264329698089728 0.027347469451666162 -0.20490059623029 -0.031743920183662289 -0.081719353119655877 0.092540119115322381 0.35258444744713091 -0.12619836847794633 -0.12268947275786918 0.20275061526946608 -0.25143830887098084 0.28887213964073399 -0.14867395200331657 -0.0069860940453761889 -0.05576817407717858 -0.17072818418026603 0.076684415608192655 -0.043766421430911612 0.0099961744272522753 0.29453483408661452 -0.042392766235724133 -0.18049759539190985 0.0067402085489661279 0.030806457772732315 0.038893926970902867 0.036393291651164547 -0.25990580570495736 0.068010206430493478 0.15692000361954536 -0.22388961949865849 0.10398850934626447 -0.20218964269782838 0.29851573751244437 -0.077057037370874285 -0.24340046360239817 0.20647034600789868 0.24766535450914712 0.27057508870473396 0.06576613787815852 -0.15206358625100264 -0.14194554810387824 0.14626125904800752 -0.038687846790137981 -0.055865873007982264 0.36274103284041381 0.33263176090675545 -0.12925621776642893 0.14131508281781266 -0.073812328327444748 0.071061146411823983 0.14584800779372142 -0.21485740643162554 -0.032336523770898469 0.076202236967584769 0.019028588637240496 -0.30047716291357435 -0.0064433639164246433 0.070687816231696649 -0.023920898005352 0.086885049777630341 -0.20046802335414501 0.28766404038420446 -0.053626555770632543 0.093888961390933889 0.19074853462320607 -0.12530595819019802 -0.10836786904948043 -0.21270088845689766 0.13214517879490698 0.20488303597727411 -0.16153464258960545 -0.24827512302362986 -0.096194954811190211 0.084177708657112063 0.056582035202886238 -0.2004912320110965 -0.012043332498238487 0.028449176915374751 0.072274367661476616 0.14715616490781469 0.060284091716404066 0.14699321832655859 0.25802852285532224 -0.20192707479878777 -0.21539630735268389 -0.068611076598840692 -0.14817006338138541 0.12229106589212603 -0.049417338173029832 -0.22097750966517815 -0.18705017321117146 -0.34032933974884932 0.052600880916112702 0.0071078898926438634 0.13526468859514279 0.11321969210758942 0.01260865584865555 0.21695641172396218 -0.045957703774773581 0.23937574055478694 0.058638866934709037 0.20526700801619441 -0.022879345270880615;-0.039372716388144283 0.14419122866021664 -0.027179177329271463 0.14699400163778636 -0.1789502260317026 0.037719550677250198 -0.14309950526388296 -0.0088480484899034293 0.21679493244914469 0.21237352962909148 -0.080609743145315549 0.010673699287565711 -0.24518848790012279 -0.24714325675216781 0.090520152621789335 0.34897232228248792 0.13800773899147598 0.094393690514715953 0.15649013504969175 -0.093208675997095009 -0.21653175025561144 0.036816988541514502 0.23797974042320402 0.26571926339322222 0.085994472017816431 -0.15316590875555336 -0.18979211513863176 0.25093106601502002 0.17021142712969992 -0.082619289075118382 -0.08970201511292257 0.10348302501056826 -0.10670894095983398 -0.16905582660851493 -0.11525880271558768 0.068177929822875002 0.39615280974403866 0.098650568600586561 0.16932424871952453 0.0021156257754472723 0.018118519462174063 0.10058366421589367 -0.44003347005339993 0.13497924194106245 0.038899121955220009 -0.23618498548148864 -0.23588358890185823 -0.21643354067009815 -0.088991461719003531 -0.16544032885814583 0.081978257114138614 -0.26523770221462523 -0.32539490060272852 0.089686542429322252 0.27425323508960675 0.16263796049698256 0.10955059061235133 -0.020386115341384854 -0.35567860122125622 0.025177524296224125 0.0039816117558876558 -0.20203297282083946 0.12495672752586127 -0.065901160546686183 0.030555278872521692 0.23492469689545931 0.017387601752948886 -0.27670490011138843 0.10922853028253295 -0.021101177284608148 0.095627141303793309 0.065361269596600158 0.061946291772558185 -0.018263540569414306 -0.15079030164483512 -0.10490864322366618 0.011955475898272536 -0.11176255756236175 0.13271685236075506 -0.13847425446068659 -0.072795741389318228 -0.09694183442032471 -0.082815160733862567 0.11207034905289297 0.053170776272413976 0.24218198479556652 -0.036877027735259055 -0.36114210529432805 -0.14530862615046763 0.2202075923109727 0.15350329398035911 0.35041376066750296 -0.030950430490641643 -0.36496926802519608 0.072639958566113771 0.20491157570433796 0.3017618845992403 0.13947364554429156 0.16795362130412542 -0.30036254870762374 -0.04521584451200495 -0.016509819425274366 -0.066575017243335879 -0.23980813240531343 -0.21708395223436353 0.044055731085990972 -0.12021991282255762 -0.03331773704638312;0.20009661530110823 -0.0070696599823603049 0.029625307367442021 -0.027583484030914377 0.16357301638435903 -0.12232961874358006 0.10808935885730304 0.14064747763153146 -0.024112841473074506 0.095621107236422836 0.14594527228059773 -0.046334125301344141 -0.11025449522871963 0.11732442534520482 -0.22834959360503304 -0.15384065891215548 -0.11310730372606739 -0.012553080566641726 0.068225105607678166 0.16612975992979387 0.01531793252700802 0.13772938781854216 -0.037423393245308481 -0.14807356222816892 -0.00097772755213961621 -0.2675624303269229 -0.24466489982118925 0.055414438936219126 0.13682578033881057 -0.12078142290316761 -0.17419157421654924 0.071598088355549053 0.1681783321995842 0.1727174514129943 -0.13926519851671321 0.032696148606547265 0.19931836410600737 0.23201485419521381 0.21518265576673859 0.072308594899297252 0.057517926941746136 -0.20024679200593143 -0.088021600372559683 -0.18510949940096083 -0.01054511528418621 0.10939873529940036 0.09794495691396958 -0.25520786844852322 -0.16829559240191033 0.023904503595931492 -0.23254270558164705 0.20621450693545315 -0.24553037895672714 -0.15483769024737232 -0.013893459415776336 0.14971433745809606 0.038313546786426421 0.15080152194551544 -0.24120381973745603 -0.061280334519255464 -0.20381793975466742 0.087370175323453703 0.17204451650585814 0.17014885046320469 0.015590259460533046 -0.015931249480868569 0.084092033589084944 0.16721039239620372 0.017011287820277506 0.1712752532411328 0.21231962880559674 -0.071081418520183043 -0.096531836812994015 0.051709330475719156 -0.24846292649712487 0.15933586212982057 0.1227259629347142 -0.13339634820139937 -0.26373225532122963 0.061476117192458928 0.1496489234347291 0.27867214008116015 0.062634870642509846 -0.17339953805705521 -0.089424320025820223 0.091798771426041911 -0.20960924110901252 0.22379111263576992 -0.17151971033863578 -0.20227758227391338 0.098953806860395691 -0.084323194333189244 -0.22214944856150309 0.18845803724521676 0.082344804836941218 0.00073168317646971114 -0.2259979492899743 -0.032039437011771296 -0.13066811169027193 -0.1475561610345604 0.13321821006270135 -0.11332652911937192 0.12153698661806216 -0.22212358844563465 -0.16550394653653397 0.03212770469329395 -0.019451351143890482 0.046036123274225564;0.27036930024013422 0.008564562444022962 -0.22207286599842993 -0.020548836913339166 -0.028856851093915472 -0.013175475070411684 -0.20895920038486862 -0.16689864165685936 -0.2339223688842415 -0.26772379186715067 -0.039636594031699154 0.20201819593328188 0.13196022817733299 -0.038485158899009594 -0.012630118978296924 0.21055819345736365 -0.17147533206723933 -0.1351374907206298 0.16081746416925294 -0.039730693749796354 -0.21138541101816488 -0.069611196386984708 0.10746300708325936 0.24297045889465702 -0.19668723390690712 0.11867737355879322 -0.15047814046827795 0.071625441164808581 -0.012860730772960767 0.064338797555461333 -0.24199408706564596 -0.18664642656906613 0.21011725519239935 -0.016859272106462264 -0.013614359191077388 0.21312166094532956 0.045096895076028931 -0.15219793964316397 -0.055268639186144719 0.21106194968614145 -0.16613347980961229 -0.0059927580436108033 -0.12524443459316373 0.17664969789905619 -0.0065197150834059798 0.2204301856834423 0.019603164669557312 -0.10264641508169083 0.1205752727529032 -0.17941337286865694 0.18911191111741379 -0.015202389144158536 -0.062721994980517254 -0.25222840127240914 -0.095753645490922745 -0.01080610761274132 0.17699201154980584 -0.13714020516834416 -0.19177257964336492 0.096851329158222768 -0.11272130580509605 0.056999927061627292 0.2278130249956529 -0.094192156465316146 0.012367766173889809 0.1191049377150758 0.092278261878093085 0.20141587732194458 0.040389304242771394 -0.16933645586252127 -0.20862113064561774 0.18033666259954478 -0.15350347382860191 -0.1413041354451523 -0.19833170281459833 0.028837014545631142 0.14861594512625032 -0.0027564482257467424 0.14015570539560659 -0.20905833805004223 0.13211376737582378 -0.11022008910182095 -0.071335620959413926 -0.0016151111862025237 -0.0328576844639085 0.19405166596446172 0.099640056527383392 0.1511906642650942 0.22611956396709512 -0.048986514911568461 0.077871283906300895 -0.063105989458804759 -0.037666621311518003 -0.039055540858931988 0.041622041532953097 0.018914365123361393 0.22804234762779249 0.14187555541593627 -0.16457359620947204 -0.039312193919867601 -0.044418792344303494 0.15191876276427477 0.18787938073191043 0.03733401617494423 0.00035441091506576729 0.073306237681668412 0.055138048508776911 0.16029865856161235;-0.091109891107726271 -0.21654066155401752 0.098826641150019504 -0.13472607893395094 0.094218160061166137 -0.14648862309578028 0.082167259288953659 0.16040841476166287 0.029137936152635022 -0.11316862047249852 -0.020414046231999283 0.11588076360664148 0.046875925303696546 0.16314221628194622 0.22436454920230975 -0.01142370099791446 -0.076445235481123558 -0.22675617033920664 -0.07672962548338895 -0.20437776289293189 -0.12019472279288852 0.21086649195685828 -0.056661017769431235 -0.079920902660658932 0.067054577657388537 -0.044598919486076423 -0.097879441726691219 -0.089262120102929318 -0.16612037539344723 -0.030425664123574742 0.19623527839424595 -0.11852152027825093 -0.14131905883572299 0.15202461813359716 -0.013790258037632267 -0.21252370823633071 0.079455003639139085 -0.085843048724757745 -0.2364555672392083 -0.1335287804778395 -0.10721332704731844 -0.24301339706059769 -0.22379776184302586 0.1405206225839338 -0.2483240724948112 -0.17511103528753288 0.11275178676256077 0.10022487227399404 0.18808238006369218 0.18846206229110959 -0.10078474854860896 0.052305460329962444 0.08345015652754198 -0.23064374453603198 -0.016173054498770462 0.022744376411452275 0.18133813705874549 -0.1404882703150403 0.21274537035332833 -0.11194466389292056 -0.04890083082302648 -0.002850306426981229 -0.14388976445779916 0.2364180585997647 -0.11729748497484782 -0.001653800641940327 -0.1698704084436016 0.066424784175256796 0.13899702614673407 -0.23836475941404123 -0.20606301107676123 0.10646569301662993 0.087555107849941277 -0.19107413024658867 -0.24054254652672288 -0.021316417706359572 0.20320986335718733 -0.21249464696109735 0.037075681843213706 -0.23029767428687614 -0.076893825953811459 0.0016566050457794271 0.19351687305570517 0.0059280498082506811 0.0029967604332687705 0.1947998006735582 -0.18143859924368552 -0.15479948020217116 0.13786927756890319 0.20149496140454981 0.098250147692103898 -0.09686258923838667 -0.20709693646869617 0.21385495099611271 0.09526415811878669 -0.0044811886684059752 0.035460993713907832 0.034963472130426367 0.044290378927770872 0.0160362822737002 -0.10634448209056727 0.009755417089437125 0.10213857956335116 0.005634278993901681 -0.13317700512620412 0.050978419959514396 -0.021776199106421552 -0.24434095821160143;0.20724273475952709 0.16405267480561425 0.25342874968902662 0.13667979178732981 0.072465867450602336 0.13603223527105338 0.19620129576728418 0.035327147889026349 -0.045915705953310432 -0.14139881695050283 -0.00085293779751060433 0.013659134434195624 -0.091922575359716305 -0.23156840540149148 0.14803263192240612 0.089927742655508985 0.13908142144541449 -0.17404658397282133 -0.092934022829426199 0.061403100239957001 -0.026216960761663671 -0.044486166702830836 0.15496422991150943 0.15668221383570985 -0.18292768233472909 -0.14605857247920184 -0.13280751798479654 0.036316849963982101 0.029561389973992963 -0.22436634000674774 0.01905186426096106 0.21547322009492023 0.17447175566713277 0.15685583575039025 0.12679409415582241 -0.039548179308686704 -0.079380786274661094 0.2470732356821973 0.10366594387727493 0.019557639266020277 0.098443495967377947 -0.059353192197302576 0.15318941763636407 -0.21671249397730441 -0.070761226267537683 0.096641264674067223 0.031084455354107456 0.17188107895451415 -0.13641843143603397 0.1793803255874093 0.0056054255234260081 -0.057297111518887549 -0.20216001479577042 0.2278062767528295 0.17014862054005669 -0.21894324223291892 -0.14856601406015191 -0.019667789687781233 -0.20532384688485028 0.22501647780476577 0.042942287098929582 0.1154818363774609 -0.041965374896494913 0.14230834611225546 0.070197384835965715 0.032223268898541754 0.064206436413473206 0.072121518229671944 -0.20726098570003715 -0.19605444556302473 -0.23092710996088214 -0.073654538800083116 -0.21936290135329303 -0.15734347504343116 0.061430129875574196 -0.16825543231960211 -0.089560401612225851 -0.0048469486990532877 -0.081838296325083368 -0.077590201270330894 -0.11998831686041689 -0.020697682115801409 0.04588879414667367 0.170223633561325 0.015173721890280966 -0.23963537998338608 0.23433089949878472 -0.070336661010446264 -0.19340437041822231 0.21767612762908839 -0.12952025329343797 0.10142184755420126 0.005424951913898573 0.11899887656056696 -0.12601156370066161 0.17517922990518567 -0.16413647550664259 -0.068034484944000301 -0.068575286814960792 0.14811058906957877 0.1670974321189502 -0.15423781740919887 0.16217482834262592 0.13166960289504132 0.093601929120692859 0.15990521504342009 -0.12591897813777383 0.21730071373435741;-0.021446278470275991 -0.22637423925813061 0.063682729200693844 0.14995773947133881 -0.1105569721233244 -0.19454909166426954 0.23063972553928702 -0.18549450832246778 0.096417811345589993 0.11359874876397909 -0.090667467510849975 -0.19098193988622011 -0.10960025701934174 0.17773777782517505 -0.14183422548827593 -0.023920903637875073 0.17297217825476494 -0.23469793188283539 -0.15185367378595413 0.10930426137411295 -0.18797676261729676 -0.043592841438752999 0.043986161350272751 -0.21816711483864215 -0.062905788032484755 -0.22269843519261404 0.03316944672304422 -0.24806067168519502 0.14892739886195536 -0.099596037729276693 -0.15115717417661509 0.053767198474956077 -0.15295144742778069 0.13487513216438177 0.17895039033078103 0.017238616225954826 0.098589799083056678 -0.019755767614013386 0.16805284063898096 -0.04617624743722528 0.087229088027860793 -0.099033639675537063 0.13269999009631048 0.11884018289148167 -0.10035802199180466 0.024549223820381497 -0.25231419002171274 0.1002764236255158 0.005825655113471306 -0.16027249007212813 0.0063914915947665988 0.10292197277388901 0.17332281950896997 -0.079300539199138542 0.1591518774283856 0.12166181326129846 0.087031860094795688 -0.22503982968129188 0.0057730443297117871 0.16874162708872087 0.24166578867112762 -0.1390498785187608 -0.22489464313842594 -0.031063102964190868 -0.078552998374501942 -0.20150573053890958 0.022125587003905062 -0.10660747597114933 -0.054339233896036745 0.081483589250479604 0.06969611184396364 0.039711269378615174 -0.18650650594218593 -0.017716924761686816 -0.15086322421610984 -0.13565545879170254 -0.21042045160852857 -0.22940646395022274 -0.17011885792601153 0.15147884215185894 0.1098937069993538 -0.19690117323765985 -0.0008585574408286644 0.14500380023073053 0.22080850083949968 -0.02441145151505883 -0.20403788390727295 -0.18640707905238224 0.14112078375122133 0.073102758747014787 -0.060781405535995134 0.068218694257064796 0.13667457767951824 -0.078999877423857015 -0.18316760696037446 -0.21008729986784361 0.090328002611611391 -0.17851686030718397 -0.13956948299163865 -0.13942303442414206 0.18373461924461343 -0.078005281593308856 -0.15491880068268529 -0.13339706454743372 -0.0046867295562337645 0.15129589950069466 -0.12065303737078334 0.11902235386043224;0.0091744909940947687 -0.19547137348573906 0.25516271050047168 0.2649986178385958 0.18620873869863774 -0.035867500055073373 0.10259602982548982 -0.074568686095507694 0.12176659670090297 0.082499652428921183 0.25255902050123058 -0.17520879910940654 -0.2055274001710477 -0.14563526289727399 -0.11139878664536459 -0.067619502422187283 0.17503895231261907 -0.053926770562634355 0.26723383609581031 0.14055204558805404 0.24877248119845555 -0.044262842673554209 0.12381240068365876 0.07813981262555425 0.0095302776938047135 -0.013132674943325293 -0.043152876034003598 -0.13729194381098178 0.063166535085513009 0.15065663658120332 -0.0049190309142414937 -0.096686376872008803 0.1776201008315838 -0.079783749731297954 -0.16389821089760837 0.14110126958456976 -8.9160326820232193e-05 -0.050231680675937647 -0.11892706580086385 -0.062310558312383343 0.067094396904966352 0.24412024053807757 -0.096720079399826797 -0.068968063578507266 0.10580821931374081 -0.014411727046715507 -0.056656659844487284 0.20167890071274025 0.10670533609010963 -0.070247973545747522 0.24506701941646578 0.24737066931902307 -0.026944517206947915 0.060963970162729003 -0.09799807208912599 -0.0061745912103959655 -0.1262263844188608 0.032117729835359127 0.093892400742621979 0.24472761567883086 -0.13375115837102713 -0.07321379135775502 -0.14307269663284633 0.15259740307251943 -0.11241554765369764 0.21252468021007515 -0.26767902486559136 -0.20731606669058725 0.064735080110779997 0.195145127142373 0.074175476134024476 -0.10288350341157973 -0.25818099868207622 -0.14203360831137085 0.17908530446861362 -0.21334732997915148 -0.099671646150202964 0.020043673916797778 0.16204048767280121 -0.032639201536384839 -0.052772285607910752 0.014588754376944889 0.28634150845956008 -0.23427352483323174 0.218763911893607 0.034889030501379537 0.048633480531800034 0.14913374204203261 0.042827759586805896 0.0085619353494785517 -0.094789592558158137 0.12344758681388683 -0.12567553807837806 0.023702350162413684 -0.15678158366012354 0.11881321092544875 0.13091617798228722 -0.17194840614089929 -0.043748805555308294 -0.022328850943378487 0.19697324792685655 -0.14451887380462733 -0.13964963113779566 -0.17666188688140502 0.11060429233591047 0.11257891425237201 -0.16431523747614105 -0.20710983634880328;-0.19322164722494348 0.24281137302606504 0.180747520650754 -0.080089066405433604 0.31584002530576216 0.014225145810078997 -0.059255614371252922 -0.20736867354710722 -0.22937210131543317 -0.076671588317781147 0.18772829058920715 0.009929659601176876 -0.16431985348208328 0.15147974966607777 -0.052105733454679171 0.1765117602925933 -0.033236747095492958 0.054312360543214783 -0.34134898893204535 -0.10708729842653121 0.19355077469300541 0.16051730786704929 -0.071197437159968666 -0.032908018808107856 0.084812946510249274 0.036433021911136759 0.13519234539910152 0.022886310611350796 -0.17167205966157303 -0.25205489530791064 -0.25091241244979617 0.033929456038095468 0.31104559919000496 -0.24586439517325892 0.061855944396886769 -0.30540383716223291 -0.20410737593132983 0.057353862454511316 0.099370612617103268 0.092481945045840272 0.097792440901019809 -0.080845237345597801 -0.095884529027376472 0.017288834516079411 0.41793504440333862 -0.11695670121564083 -0.226540629441875 0.26866036010927574 -0.27023290700119479 0.29473826205526055 0.25795872563094163 -0.27216518696022157 0.23433154745114085 -0.097555876290319671 0.018805371030270315 0.11751974912654783 0.17744972750749136 0.18637161415989401 -0.03550771569053137 0.079661505704546609 0.29521818461067983 0.088095014771584601 0.0066489832349044525 -0.23110165048728734 -0.26155228503961575 0.03871396290572654 -0.22713744276709777 -0.098631460306433313 0.12011065005774288 -0.16577281434947763 -0.25528513571418737 0.011931246317732626 -0.12915705718828233 0.17781296309820999 -0.012409287805984492 0.16590752673928269 0.057714594168008435 -0.0049936776503890119 -0.39793936840607852 0.12700094446951704 0.11237737598108306 -0.065911120754100272 0.22165762734710323 -0.10911011607669625 -0.37105905440031178 -0.1486555798786087 0.07582348264378605 0.026511332784641132 -0.057826516156072247 -0.13561325022865947 0.28123734253987664 -0.14720543662088348 0.059608263273872295 0.11170998295049551 -0.017968286867816038 -0.24495416881904 -0.27256088100103804 0.14527606506104496 0.14629570452020885 -0.19189638172272599 0.11362380584557275 -0.11212394656964843 0.18310293652899712 -0.1499479868344904 -0.15886032676487569 0.16285050847566782 -0.1090960515705168 0.19001568422350992;0.25512697050390948 0.031382281988743252 -0.16069441700338802 0.1571800601595405 -0.09767123831859488 0.20249212243782017 0.033088289637924463 -0.15198109622790099 0.011578574965767422 -0.025502741746400208 -0.1202893188016196 -0.022154365856297615 0.27942015014828675 0.29322054041175105 0.013260873058601047 -0.088984177752522778 -0.14609139620496098 -0.10508848592001557 -0.058770531504574133 -0.042762163792481878 0.11503239669276737 0.020631981827376737 0.11156728154620765 0.082521317435219635 0.17762918557348054 0.18612109883678984 -0.11552037211976712 0.11313511974405564 0.030894895641730501 0.22451227197701079 -0.025462835832402671 -0.057312862931185003 -0.1157137390668448 -0.33196748516290164 -0.21547055949536117 0.029437053424046903 -0.040855844983511261 0.31883652314800093 0.12910208500178913 -0.23567791893196138 -0.084076305414193322 0.072012642800356907 -0.10388118733365914 -0.036570715472257764 -0.15930964976057102 -0.26714881274884811 -0.002188510679633228 -0.14627750457435781 0.18261847516742355 -0.11286465065652328 -0.073225176473165718 0.076784943806560216 -0.2666229832682761 -0.26171653680424983 -0.10448184668233665 -0.1868298252079155 -0.095159901681122303 -0.14036091012459198 -0.21045984651073973 -0.054547979411733886 -0.029861141145268527 -0.23224662099772658 -0.13293674170964154 -0.14448506934485456 0.31599881725958362 -0.061576892201915853 0.025056656467346401 0.25903054098006495 0.022148664417936503 0.20076509558618064 -0.153463481622161 -0.060762444739367899 0.11600367764229713 0.014908084960638552 0.056549623723081609 -0.1030435086434644 -0.021343978970250893 -0.083993587531748709 0.046982947093973174 -0.15834503594157207 0.072994868011337907 0.067351069871659341 0.021416291965424508 -0.11868345607429122 -0.17834899917081004 -0.13403686072342033 -0.021635573471216824 0.008019167384375487 0.030434031751754541 0.20958466633726711 0.073869830836189809 0.058493391638183331 -0.2469743709079224 0.23358286937210493 -0.20366989487070392 -0.17948042835896416 0.031797238637513589 0.091539480802137793 -0.24393196301291897 0.14513341868184043 0.05689978658035779 0.11498378401380654 -0.088063771854504119 0.1897299196338996 -0.17446453583917623 0.23014454458699554 -0.03950695262084078 0.033620760021639315;0.16973226575503839 0.0064271098520855075 -0.23261816570110727 -0.10247610486081886 -0.11390263582054014 -0.014311394533869197 -0.020701933309572089 0.088092845022306313 -0.090232376589197097 -0.12274652387722786 -0.091155203967611648 0.17635924572227155 0.30438333069858786 0.052904151812128763 -0.16269975365911804 0.19612738944263083 0.16477207614936651 -0.15313292427231101 -0.37315555905287801 -0.20861659545004443 -0.064419334736952952 -0.030214382659382744 -0.083502265807908677 0.14502787549156587 0.07652593786617648 0.20415965963902827 0.13756686096384002 -0.091007084580025085 0.14422823060695891 0.16205439834855256 -0.0006119224460356909 -0.22659004757976925 -0.06750764428284263 0.25652397426611367 0.34020745735190278 0.0055123343907888759 -0.03181234800160565 -0.08723472676093276 -0.16940220060521663 0.12772731665157105 -0.1852799266510313 0.064632044971708005 -0.17375157537892727 -0.059821029339478644 -0.15781455194399502 -0.082552352712354227 0.093713119871388362 -0.27947280667657309 -0.27873202904055078 0.087340547553653183 -0.23851706730539043 0.34960290665362348 0.2779550904157993 -0.0882723951284895 -0.10094229458828995 0.12855577836403417 0.15251730679749051 -0.059706042485400991 -0.13747489349621295 0.26546334663327742 0.047293231226116839 -0.084825940433384123 0.032069021030691924 0.11223892681685729 0.037650419025295499 0.15692800013862285 -0.16816815183559855 0.1251185507403077 0.19697039581848297 -0.25229768401372993 0.14780791977941626 -0.16641184778549534 0.21878805274003574 -0.2809417016618303 -0.25299282180266552 -0.072037959559714884 0.16900289743024852 0.036197009026977305 0.17683276039123236 0.080807414858074439 -0.02442307061627046 0.084541791356753992 0.15247904848386182 0.038951166512061354 0.15288558230169477 -0.19606454760552858 0.095745848959955041 -0.034639914719345209 -0.082289186843164927 0.077259894281748384 0.17922291699732701 -0.2489627013191465 -0.2943929796903233 -0.095169327956398694 0.25361667828087686 -0.030600054051923231 -0.07511127019051532 0.083433943647990449 0.021344012267028728 0.22942289544513705 -0.10353703891061156 -0.16320740427280017 -0.09025406225785701 -0.20442904150960531 0.21941283254745653 -0.021308870937624166 0.015985938103664294 0.10040979452340076;-0.16643222209548472 0.29865039809176669 0.04631199645751289 0.075031482688425771 0.15012236085862377 -0.23921668459976134 -0.11376380061359583 -0.16598429677377302 -0.00092134192675620195 0.068088440524717686 -0.19848671902835058 0.16907608465053528 -0.15936939502100014 0.049749774027552013 0.11476103739890557 -0.29746558701205966 -0.1576041733674374 0.23305339399014899 0.058728069579640323 0.12054640804157159 0.16807857794973854 0.044574472596955489 0.25752848608575724 -0.22225529861164747 -0.06093863451518184 0.11271399842922859 -0.13568959260609664 0.00046576830774920728 -0.15716668956805541 0.073468176261022144 0.034605071596685376 -0.012733982693845132 0.18777257717544699 0.13131184425545989 -0.013291134682197985 -0.20906423304882268 0.19464777974950603 0.009129882685005572 -0.061812007087583054 -0.17517752274255616 -0.25575261921732234 -0.12699632772473951 -0.11802549440955938 -0.15299196625110398 0.12739863569753929 -0.20352089228591327 0.076892617024805821 -0.14874041523917297 -0.050742516427611711 0.15998230283425402 0.0076987527652340087 0.028558053534089179 0.12494714489618694 0.25508182590858791 0.15649908632523096 0.20082532424117872 0.052956617548042005 -0.312196806955303 -0.099086312860125855 0.1015935647928399 0.29118488083734506 -0.0030050164864399661 0.070131881085430059 -0.061328648377665981 0.13514035060374624 0.18654281279381169 -0.098467430359778979 -0.00031017133160544615 -0.070157663140485382 -0.061229127800586293 -0.11690759166452551 0.061305464700402441 -0.15968290102231622 0.02088888455209852 -0.0069359543365839224 0.14089123024746211 -0.031286233792189234 0.033468296847067834 -0.12617073212383734 0.16118364053641723 -0.13169178835754086 -0.14758710997903146 -0.069596449045016842 0.29671256578255406 -0.11907415295945742 -0.21651542374556901 -0.0875382061237375 -0.20087174530124111 0.02181843423726185 -0.14481421133605224 -0.24114994606111925 0.16244598776492244 0.20350372918535078 -0.063744527049227367 -0.16178560186773186 -0.1714288882673469 -0.17982430697040061 0.071954746368663808 -0.20830406025123299 0.082208237139282242 0.052141909803808888 0.070820900665319236 -0.083928812575463682 -0.11335447896903571 0.25595580233747095 0.15940970641655125 0.081187388993642348 -0.063186504533797372;0.11367834162970138 -0.23532227010407858 0.076390692368159555 0.090500906881447074 -0.20334480474030295 0.046901752478802572 0.13310028285388067 -0.35138098547964974 -0.26121337358064001 0.082916137161769876 0.07491406166377379 0.070157237701337777 -0.31068044635954378 0.25249858278402254 0.026062715591803017 0.075906866115376559 0.18323565832312638 0.069205829545470443 0.15672879655665833 -0.02371951978463023 -0.070284006341948563 0.14398305584400609 0.053659028488794926 0.15551414228138799 0.21307300242229921 -0.046784283160711211 -0.021929304344449549 -0.15915995670923558 0.18201496762172592 0.11231500822871641 0.05554964453734916 -0.027560610354330058 -0.006982859970121583 0.13027913118369491 -0.22495078260792484 -0.24755701514978684 -0.29491552408265098 0.15013651567428879 0.23461988666151268 0.20306625216661339 0.0073682001850164389 -0.11269791263605287 -0.11341721075203215 -0.0917569672528563 0.2608154271038392 0.067743719955657006 -0.25023207739055475 0.17697891452002554 0.077012286472751712 -0.083245399848918891 0.065525491714742048 0.16176183856561335 0.13804296142411512 0.014071922931329599 -0.23584980385258575 0.21410964939631527 0.26735816323065587 -0.11795252294932568 0.05937381265424499 -0.12116354051294925 0.19981213427825781 0.096744866204853008 -0.12143569876670628 0.18173338782688361 -0.02907585201263321 -0.21105097593389391 -0.067620251527514622 0.17550491531371076 -0.081060060729001918 -0.0757325831544165 0.19838035577861651 0.01349297262043724 0.19574292024396892 -0.1762230743968857 0.079951246074217622 -0.18585388372567369 -0.22243636302908609 0.16559281324699071 0.30487795025238479 0.060213127335315739 -0.10267052424317344 -0.3075233149144338 -0.032800922499295788 0.16618509339379642 -0.18213431124007962 0.22751985945559908 -0.11251678394539584 -0.28468212781155361 0.069031084572697896 -0.048224154680062005 0.064092046955976908 0.34735704747447249 0.040660879365609817 -0.20177813589946147 -0.088605720135672708 -0.31902899777332699 0.035230637320653659 0.15412504555194811 -0.1986893519735104 0.20356712415290013 -0.097296058669341226 -0.19624005289582255 0.17549465063841069 0.15333783181795921 0.083444112474200971 -0.21910471857018848 -0.26019124373118629 -0.039667621482540605;-0.14755229111392096 -0.31585932128831351 -0.14919587041508228 -0.29461358445258767 -0.25249901102975775 0.20140960805014327 0.50831084603343024 -0.37639647320950853 -0.34895624999143326 -0.22944176757867632 0.25269140354205843 0.29657412911954828 -0.083190666606843766 0.055716763309190086 0.092142433161048282 0.070690148075944342 -0.051347601498812359 0.22304350390192457 0.0036054942693852787 0.11752675254260946 -0.10284294713832584 0.082925845923251737 0.091054568428782109 -0.0027655219057231644 -0.21251437591631187 0.21403391818197134 -0.064148005955411133 -0.052047054667234353 0.17332384097701509 0.13739145950828349 0.17509532675788617 0.31799503731065842 -0.20955937316256695 -0.33324718831636724 -0.3208587514727072 -0.085803081502392381 0.094137975701689469 0.29175152675532207 0.0095002518182030274 -0.19219817262584277 0.21896834986490704 -0.20681923563643997 0.22403368039893778 0.13906801568797475 -0.03225649287027875 -0.36386129141200113 0.23644782016691537 0.15593728626773448 -0.14223876863420987 0.3492055551834875 0.13862671576474025 0.13289611636340659 0.065767423893308197 -0.26441595219535102 -0.085467771245845855 0.56705685878292711 0.23391940830766622 0.12034054302392802 0.14702169580661881 0.070457579520761926 -0.090956739481339491 0.04244005817727927 -0.18925850293911831 -0.125152391718865 -0.01301793609056401 0.053729102993263535 0.034226670543457412 -0.013679920037569479 -0.23915637649899205 -0.12693581129255435 0.11603342441331255 -0.062161903395368645 -0.20503609714429485 -0.071849121505778241 -0.16596109878710361 -0.34626492700826078 0.068830552484396137 -0.035189985808347535 0.35756382912695861 0.095412351382894112 0.28344941419391423 -0.2969030033286939 -0.35468322214211911 -0.083788006142893404 -0.046210073511256285 0.17249571325404747 0.023575913971956065 -0.15364207138114253 -0.20705918049839522 -0.040233467333023139 0.052442048644387194 0.1820560674814686 0.30996188287926796 -0.17792897058553639 0.13782906164396019 0.025310211026199077 -0.16459240485083296 0.23672810432643623 0.13188076961015238 -0.14889813632296331 -0.036295436474175727 -0.12430559599436579 -0.11277500552493137 0.09030368589563291 -0.14718912002916357 -0.073038163141832604 0.14110654148939292 0.046777310273678423;-0.12709820189710117 0.11252130577648384 -0.14366227235986787 -0.016102768661019406 -0.13804829183311637 -0.19563627865639047 -0.026314860368340159 -0.034961543171028571 -0.077212578889827133 0.0079750035432507877 0.13364694790108386 -0.14406543900724605 -0.50476725701123881 0.18805078985787751 0.26900172296285391 0.25693716857690541 0.12733275546019643 -0.1867519571007232 -0.016092664159267637 0.24788360168472712 0.3710471766014567 0.23144653948329105 -0.15207793202081865 -0.20244652181751069 -0.37161242086382207 0.078225228591664045 -0.074457205269321841 -0.16223299111406578 0.10505145346748908 0.037000295646780382 -0.017043767141631611 0.084371754706456095 0.27730766622090813 0.038821600613826911 -0.16183700147119393 -0.098913445447614448 0.022196127206396184 0.0088911086750250862 -0.13769946110439654 0.021349214477530201 -0.2224073266304688 -0.32032340903162509 -0.32385827344752854 0.042557081243189555 -0.27444050478902821 -0.4018770068985642 -0.12821756162671732 -0.12416872230243656 -0.090988385317273254 0.1812538665448071 -0.21258488447175933 0.19008888907113927 0.0495976599928682 0.073335083456113614 0.24231065652791897 -0.16634251525346397 -0.031511459192563492 -0.0094045195956169066 0.39878598799028525 0.18333207200591412 -0.30256373141145421 0.043564037326527069 0.038601174741680615 -0.15099444931348874 0.29701834521187404 0.12210931241534041 0.050257023538481105 -0.069017026892181838 0.25595821305314065 -0.25533755331927238 0.14766559541326424 0.016122928785943486 -0.090524330928334187 -0.19818430971466849 -0.20282137810791614 -0.059437495555973732 -0.38603726111192138 0.047049113118302496 -0.21434375231951938 -0.099695924825936089 0.20041232119433147 -0.22926597403178595 -0.29181104426168836 -0.210698490356863 -0.13964768165403238 0.2670683418139746 -0.10405234871428674 -0.10675193560421499 0.49435867195949218 0.10572807770507746 0.043210821323284687 0.076846963648552619 0.030851468078236275 0.18987395323915882 0.12742896510988 -0.011126376758154222 0.27323639202119021 -0.29185573953028154 0.028877089724619068 0.022190578070078227 0.31984134131896574 0.069724368524192129 -0.45413124888326195 0.061764129130329137 -0.32155488228663409 -0.27621917805995982 0.24860939263376861 0.11616401112638262;0.079369771534551714 -0.033962515511483 0.015602001540119839 -0.22222875314683799 0.21882375007024071 -0.12344927851778686 0.014915239295370688 0.0034132106393408488 -0.12630548546074147 0.02219355931546492 0.060011601003025973 0.086191038716699434 0.16497018773168412 -0.11833995694077538 0.17002942579665753 -0.15578263610068857 0.038485405574405725 -0.13045641041867082 -0.4398783391566044 0.27138173385140796 0.2394846084404583 0.13647856032749797 0.095347435584004256 -0.054698237309241921 -0.24820679719676456 0.13575599281564732 -0.23444977204613698 -0.23546923403875283 0.084517554309246165 -0.077866751587156016 -0.14294967350734999 -0.15829808805943374 -0.047305822375929799 0.06155833567429201 -0.24323676706027075 0.045660546301511347 -0.067210171939621102 -0.032791002010463588 -0.092573118617664263 -0.24877973675621876 -0.052541695973195177 0.13692976737236237 0.11579246359389761 0.30138531671305535 -0.09915682870765162 0.10055857041289104 0.066778543693799527 0.24840473073227315 -0.036467516291426139 0.13437848525243051 -0.0066412895810476465 -0.32274807981719927 -0.0069846246249321781 0.28659352753390416 -0.315401306955994 0.13126517387118117 -0.056340960160826521 0.059547679680172556 0.33843833076245744 0.16831259290285025 -0.1642465941380972 0.094202988617860098 -0.15297102279855807 -0.18654815946219094 0.14544488508225259 0.24282476065227054 0.160774854875923 -0.15568965669814058 0.22697767245520362 -0.025768200799221562 0.041657669846712174 0.026302490828796991 0.079632842006162427 -0.03209504698119206 0.062887497700292422 -0.14310088455630424 0.055138621789578283 0.26409439183012651 0.1083061880743099 -0.068092003652004296 0.10777776936109898 -0.15415657281635223 0.094168306866809923 -0.058016176309743213 0.030053364907171826 -0.019685374352118555 0.13201811015950063 0.25458836037997168 0.078209127397038586 -0.11376099488455343 -0.13326734875931431 0.3173728047352693 -0.024244655704373189 -0.16733920999619717 -0.21864477180964748 -0.13499974509782101 -0.095297859556479098 0.25228002646373654 0.088741524709981492 -0.21124811181249115 -0.18955226970515721 -0.21208872867683348 0.073954504057290482 -0.026188202731833012 -0.075763282589547259 0.055559740407270124 0.011735533709192012 -0.18751019072956343;0.20728537603756794 -0.31110847733231439 0.10502200931328333 0.088359725130753006 -0.14805625524373611 -0.086980052751161122 -0.25573727857835471 -0.10390470916392767 -0.40844991854572238 0.26423714559519651 -0.15929057236843275 0.013870591334438914 -0.29487913978487668 -0.063046765912300975 -0.13477144094410665 -0.10380412113008571 -0.17031586070828425 -0.012498135823448232 0.25587785535530011 0.38214490810348745 0.09747262774084936 -0.079752299516208838 -0.14969774059503391 0.0021434810865023149 0.03750783546265183 0.13091403132684487 0.16774574274362769 -0.1516822490003597 0.18276360114997217 -0.40480758060395272 0.33101259759391377 0.02729953064080913 0.10793215620854361 0.023073842486592912 0.14575795839046293 -0.056878434898972277 0.38110836677028131 0.027198657039190586 0.20234572213349825 -0.13162537042448982 -0.039658375539294889 -0.013192480799853004 -0.40024572686878757 -0.3060649686411866 -0.22208232707051206 0.00081321919809569784 -0.065691280024463547 -0.048304219616745109 -0.23549226399622902 -0.18659426555802627 0.0097321603705483577 -0.15600579960083408 0.12911367922974312 -0.24932226844431776 0.41001169877851762 -0.31580550090506182 -0.19903744551197444 -0.10675708289508289 -0.16382891915416728 -0.16971814452447248 -0.082317454391774431 -0.13638550988498824 0.056782025099452779 -0.086558616763294044 -0.25001309321877685 -0.051472606201980242 0.11080077959327098 0.087996559837498448 0.080700313742480198 -0.042208047271444088 0.21610426120226206 -0.2146760882706481 -0.10398461624267274 -0.17123161141336446 -0.13653635067656966 0.083674383880552872 0.017208703857046113 -0.0099099234189122861 0.049830169575155278 0.049924770727082256 0.18770996559493178 0.14433635648514531 0.22290389336750591 -0.00064316162057844242 -0.40163187855140714 -0.34754879657189441 -0.24352768715455922 0.1581327102537752 -0.02133279470935474 0.17339432050468226 0.24264725770291662 -0.0066775914373631501 0.095084023513488269 0.02282781557765828 -0.0034919299420901719 -0.0023391489800431856 -0.057189059620295149 -0.064947494826347124 -0.095748928598934038 -0.1276402425102717 0.13436207659022167 0.10843289751968106 0.10101197577890719 -0.089400928445141845 -0.064308997531723616 0.12502732044120687 0.17612737611136134 0.25557790199736308;-0.076935718139306233 0.15599989537961609 0.0025770674222796884 0.020577694512124642 -0.16664880310198382 0.037116403651757439 -0.053876746499512913 -0.10273278394864301 0.099155890874668209 0.32674064060072477 0.1348436645546584 0.12757657407656936 -0.15034537609312312 -0.067753261501814696 -0.017438685313326863 -0.19187963183751613 -0.29181483476478343 -0.090169807915440381 0.26054880797519542 0.26694718927625005 -0.044235530131000345 0.040524015673682974 0.077616968018999768 -0.41170152160018997 0.11446466377136204 -0.19967420168181088 0.12125122749999924 0.2099791008137519 0.055099756370750291 0.25420070448976456 0.22896227331359956 0.15227236730622418 0.17313030633726734 0.024478879488574613 -0.1631953283730517 0.26686675172532442 0.098475658886759646 -0.089422632505181121 -0.2627526586285841 -0.058313574507658075 0.051088060671068289 -0.046229358513997752 -0.10738487854139211 -0.23229238112447978 -0.24364017195783677 -0.01521424990085922 0.066642457943894715 -0.084039915889784655 -0.32590683526093478 0.28895431008487155 -0.23427473069138718 0.049648200905235959 -0.090668506793136677 0.23826198068377757 0.085423946129250722 0.20356959679524667 0.21930598773404489 -0.23020873299785799 0.25530712460510935 -0.066331583972439503 0.22011991952353618 -0.09479111470658004 0.078348390189881129 0.086958130079194007 0.13420853635565519 -0.10635458002020741 0.012814639927966075 -0.085483127142616633 -0.090105897172950908 0.094602974543636115 -0.14472827040384378 -0.074827909788799468 0.21749055214719878 -0.083041848770132917 -0.23029711832907529 -0.12031936664974641 0.28228724477460937 0.24972721842109716 -0.10127034361867421 -0.14042383622220819 0.15794430461461789 -0.086544744399561113 0.24206981783218601 -0.099961689185842154 0.034297682158247147 0.18318984661560628 -0.052338808206765335 -0.084707304769663788 0.11676948252231099 0.10600509207709703 0.24082118029437877 0.14611652959047999 -0.20512942225251268 -0.35845160033638318 -0.053303807051436787 0.031611801780800523 0.071469284339839151 0.32510628364531924 0.19940580965964291 -0.126196773598409 0.098285322547199433 -0.068851569614753347 0.13903873323283286 -0.07886044536257103 0.075109277950468123 -0.056281965804578567 0.12454025466516411 -0.052205888937437099;-0.13957410393538849 -0.29025506642760668 -0.10341484658253516 0.0095719351105250025 -0.039883150718107947 0.23826025242053428 0.31366052094213442 -0.10441024547400617 0.10574686092261765 0.11235563515395076 -0.090535515430747268 0.26964851342962415 0.125197719488648 0.024291347457475663 -0.026045812779012117 0.17732253714752561 -0.17934140784813898 0.15811690365037351 -0.20530278399619098 -0.23406463400047708 -0.22447290267472916 0.27687686614149037 0.1766820856539362 -0.042737974065341813 -0.22838664271595852 0.044469017084972889 0.20531372100861117 0.26632508697412577 -0.12055678141858174 0.053007342707736022 -0.13171972163319462 0.28021406742986216 0.13770913221016409 -0.02614851638507185 -0.012722584875955454 0.047993399190843708 0.25274788767096101 0.00060227408301140632 0.18893499305811218 0.086713416538216334 -0.019067315681454474 -0.15598774523214531 0.26161282352510368 -0.20116181890310561 0.045869922402865415 -0.073347734283997407 0.11381394542721197 -0.052197583564880877 0.11584800727264172 -0.18079495934553799 -0.13750716073952421 0.0043055541140904338 -0.21432365728800176 -0.066939302045461752 -0.30440320589175324 -0.16937106554099399 0.10717360507629126 0.043962570798202649 -0.40737269203288368 -0.19040310691946777 0.2385303248939728 0.0096055172633825233 -0.12679773185741183 0.23665370389783977 0.28378949427476535 -0.077413443026278353 0.12018306494453575 0.057016804251956994 0.03648689837368186 0.10782854825490298 0.26958496162949103 0.23392360233255699 -0.054879436198855956 -0.17011502513025012 -0.19305487867911575 -0.06732897330486097 0.029583154327760805 0.10808253927701593 0.28020085191621347 -0.16800967231978611 0.12347534949917713 -0.16008909177871114 0.029061669472617967 0.10918133212031543 0.061935988830540897 -0.12496121849273717 -0.096878845300702496 0.0801903522755196 -0.26548561055264525 -0.0093713885353900895 -0.38260104271821382 -0.032712559920939736 0.27297082977273052 0.16760402010984624 0.16429560823517089 -0.16594872859945359 -0.10650237994144152 0.18656828347003088 0.25421283111675697 -0.053125647327955133 -0.17318264324586638 0.043392354125512067 0.18122255218711228 0.22333825491627057 -0.040425982800427702 0.0054925436369813061 -0.08976242804856803 -0.20181440284992963;-0.055174995899831471 0.17726459465764799 -0.039796480756728154 0.23915018205801464 -0.030376428338200957 -0.19357861799722448 -0.17732987689740839 0.21655724748395008 0.083545143295103666 0.082651964285149773 -0.23123359092897849 0.025570897437744895 0.010315865145985731 -0.11759767888438523 -0.043927837305233343 -0.20328131890668824 0.041776019666098875 0.22674895869184172 -0.13020434555852786 0.092634882162296858 -0.06379423693453562 0.062044655337356008 0.3049157947117207 0.15541000253455647 -0.24900591545799897 0.21878326713195367 0.26925954222991427 0.095802448111411462 0.22667001416144941 -0.016585122694150703 -0.024803090726790319 -0.023407456719286457 -0.14738776657721023 -0.017079156643433475 -0.18387184930287589 -0.17231744074343711 0.15371210115950118 -0.24393446557276338 0.069316062439382542 0.038369352136647931 -0.10921102109813285 -0.066820991895473025 -0.026441098537436803 -0.27241142096731497 0.10432542321232312 -0.099037990217957381 0.29648514283275196 0.10655483491868264 -0.13018182321198918 0.341936618302558 0.039964005224114522 0.26970082818406621 0.40334290869370898 0.18720448997670988 -0.16276569448173689 -0.071137436589895131 -0.014656696157278609 0.20088171315184339 0.34215053862554051 -0.25243377811213752 0.21879260165564496 0.15577477797320316 0.18539576252892614 -0.10206960601937617 -0.11142192853509331 0.030554425522382925 -0.075136380686115112 0.087951388676975412 0.15828124039318706 0.12460812255153425 0.12104752111723345 -0.19274208679903493 -0.12387077908599631 0.084031414316330127 -0.096137346059877671 -0.1702154737107176 0.22987484970050803 0.10011380659834083 0.0471980916854376 -0.077139485884266182 -0.22868719096502282 0.21077911804120036 0.014443432330076448 -0.21165780528288267 -0.17589552795377958 -0.08977177306924318 -0.079382329894286258 -0.0035134371352733892 -0.058387395985129154 0.10740116658171653 0.10942383847434767 -0.061262354154577744 -0.092866206343248534 0.0054822163867742513 0.16792755388527378 0.030592211650943345 -0.25502406775624181 0.031032144717145934 0.070564743678323896 -0.17923848756625693 -0.042923394231768157 -0.21387402632995073 0.12060261646503803 -0.07335159696520975 -0.015206985016196764 -0.16530756670846267 0.088378896205091817 -0.17595048578433695;-0.18671301358880979 -0.14217455976091325 0.094060821774207423 -0.091161794759313186 0.12133716484172669 0.075412558114645395 0.37771349949084571 0.38014652991328862 0.024480331359185061 -0.30888681735204609 -0.015260967101498359 -0.26525152824592202 0.35844740909326317 -0.30324103340812048 -0.1750247306779861 -0.63530255651620748 -0.017280640035695297 -0.056985404023184263 0.054590751922469705 -0.17350608106010071 0.041512890547579 -0.39691367820152951 -0.32837171925405778 0.21540507436174777 0.066474736599085274 -0.13353328550243235 -0.16959886448528272 -0.11774924148937631 -0.17965959815119259 -0.031752586559436878 -0.10924019274668337 -0.029975139747620394 -0.13280774617387897 -0.099194455619081204 0.1735846663992914 -0.12898840813774326 -0.098882559410529286 -0.24123232840440414 0.14318083354720712 0.2287089231457361 0.06715891793501097 0.020837366183140485 -0.16450922078237837 -0.54978047621000736 0.026108219353093303 0.38135340817177665 -0.17381403195164161 0.061215995893867045 -0.40315446925202686 0.26523547560395139 0.14048734291264511 0.507877472680481 0.3111579493884849 0.018715478179652509 -0.34723707470496068 0.078427823682405445 -0.071397013167405168 0.21965245785937745 0.13322816697613518 -0.32294452824465053 0.019856159197544066 -0.16354200543489028 0.035697522610130997 -0.14404137853600027 0.087690791354729097 -0.15834500794581577 -0.039606946231496513 -0.019896035718698257 0.018422452289804346 0.09615715467087925 -0.030355022501033051 0.19439586617129839 -0.068960468912638614 -0.31211019521637762 0.051222598724938506 0.20188126692515543 -0.15288557949428749 0.27964457521122449 0.21006223379748887 -0.055973134843685143 0.040944754654503153 -0.030238766950439987 -0.016099962775887298 0.18134627755275989 -0.0097515511241234743 -0.15398715512614106 0.070082826247020988 0.097445038539232864 -0.17134385069370225 -0.0498966669762324 -0.0051261648232503601 -0.083720394235082693 0.14010432630508768 0.25024161435406589 0.048610881882399447 0.03153045161416667 -0.10494300789543386 0.11654379772562008 0.18932183836963154 -0.10395530979593007 -0.0037126136318902667 0.073160266908423227 -0.13543849258145027 0.041014628360735307 0.16333949953025725 0.098260200617489996 -0.059347577935704977 -0.040777252852158379;0.048551819332674356 -0.018561275508180305 -0.11879128611832326 0.22996746706820778 -0.11855025002559555 -0.049341667510255011 0.035948060455240093 0.080794245519292915 0.20369515779162187 -0.0042269525427020612 0.24851745516170554 0.13262953692220072 -0.22396152741427136 0.18585757983492882 0.066851197214348262 -0.019787575970132421 0.0026289224350995689 0.15283237139402697 -0.069267788152461096 0.20043757748682542 -0.024149753454073275 -0.04912780558764155 -0.021447783749929079 0.011057714429985335 0.078203838311850044 -0.10951361699653939 -0.06954876477546576 -0.15870306924400682 0.25263940768284837 0.14504322980723783 0.12106176190427559 0.31423103172855926 0.2625946407328974 -0.051756093585130669 -0.048517433945671685 0.18512891683535271 -0.10426137766496925 -0.13195031878502181 -0.15636340772673277 -0.17026744369243535 -0.23687426465245603 0.0071140065184405405 0.10154041663395592 -0.17687789934949685 0.17759574017501442 0.079719932191829823 0.062637522461430881 -0.056363853076954837 0.011349961059871785 0.101166414806385 -0.18843107111010063 0.1148864245321608 -0.040449997504101026 0.024326127867429326 0.046078649822312884 -0.24482934119955657 -0.14677421041594077 -0.20286183016029555 -0.1408265282451171 -0.020819300449308683 0.11541195582226313 0.23441783204227257 0.13106220795118326 0.054600516223591196 -0.018478348532631594 0.11455131354949978 0.18098953023354777 0.18559400965810666 0.065711822296310257 -0.17975884618755755 0.072421158234544245 -0.14149009300996149 -0.14073982448149033 0.28640169808090071 -0.18378135966442391 -0.21075027726497336 -0.094743910299929818 -0.22193919456636624 -0.14065834200869948 0.21336687305901561 0.2424161051762829 0.022040218420969815 0.24377581039900503 0.21074830990249954 0.17686489890317819 0.21383595434571637 0.047935877224019582 -0.14773665318903464 -0.19545887272958226 -0.041140300624228882 -0.01193930355393592 0.0023260066387258455 -0.094455874855383259 0.14975225971936881 -0.15667249749189471 0.014717398916364026 -0.093881594982711938 0.15664205307337262 0.018733654739294534 0.18663322175269123 -0.0029272831515440006 -0.093131351492588735 -0.1541488256500671 0.10683731247402285 -0.17013017617919646 -0.11196043226450082 -0.11021127594680939 -0.084094520164778336;0.16752003200150589 -0.033878744279598909 -0.1772923557017104 0.017023149961016403 0.29803346115324753 -0.18377107177317994 -0.18797848971287684 -0.14478558135346162 0.085384718380430893 -0.12009514790048573 -0.061514019166878459 0.028975291759596213 0.2705868234280901 -0.067738324251856719 -0.13253474849168931 0.15499419751392871 0.036423165406305254 -0.14275972465252335 -0.47953375209269627 -0.21462004503134441 -0.037062252467241347 -0.19967295398680715 -0.35970338365095383 -0.23995616377672974 -0.015584120435500032 0.09085046267648339 0.10342620854368037 0.20500592384651059 0.20488066684822701 0.10811294487648176 -0.2137254933796893 0.14315065565635501 -0.11246899629154414 -0.085838586457667163 0.32773831012764448 -0.17955392340123733 -0.053426950946298582 -0.022127888084135162 0.096600674203779213 -0.030166869432017396 0.0069765965693065514 -0.1229804635403295 0.02392795544785261 0.22623877709115361 0.07066989066865792 -0.12737457238459698 -0.11922784186274556 -0.015108506708465214 0.033008545555365046 0.16549690707213455 0.18396793292217567 0.23009825432227674 -0.21211453930440063 0.20062586545194225 0.14693628518416446 -0.077244480891943731 -0.0087364098807416104 0.30283183951260673 0.20659026389543148 -0.046459068394040653 0.096125308895149572 -0.22327258700584368 0.091469824361124233 0.035670635413681068 -0.032630945592714962 0.2902692141965631 -0.42929241645758998 -0.065457574226009133 -0.0022549703420988898 -0.0021991155185396719 0.16986979056247797 -0.069826370097584758 -0.0087186103957103429 0.27414358977115094 0.073121740619372821 0.24826923257999814 -0.12081015003630428 -0.29697828224707679 -0.30280356426797267 -0.013239710486556217 -0.095060758198624917 -0.12913073614195542 -0.13999477397592139 0.18463862060638811 -0.1607570281558843 0.21150765223162923 -0.11252797585670368 -0.17131974269916181 0.012856802060390103 -0.072127945921407727 0.27178643128493057 0.12855178128869191 0.14740395519006894 0.0027247519802449925 0.0018110500467238622 0.008993064239536502 0.21284989433249996 0.016218572546537066 -0.0044481111602134877 0.098596319288982243 -0.072511918869108627 -0.098481388507314221 -0.12627919898240042 0.21130312242383106 -0.073823118177177155 0.19087585920881614 0.079985342781839511 0.16239690985735775;-0.26959475241525876 -0.099438243302154741 -0.18690102512075674 -0.058400418425698312 0.16868417191463347 0.10092024193372864 0.0075394660635685045 -0.24588901309138095 -0.0026465001045413955 -0.22903674690410028 0.29476482167286111 -0.037716711672035726 0.038062160193222595 -0.064978290661897031 0.099466792100022836 0.11113818599861676 0.096056538230445299 -0.21915068827769485 0.18517196475887343 -0.23509101791798864 0.19292523535371081 0.17465400555492694 -0.19581346080902765 -0.12707313515692781 0.20869233238292689 -0.071735984114779827 -0.01093259847246681 -0.17431438779329178 0.034586883309998491 0.040375484157767559 0.14096381409065772 -0.098320934921420133 0.18387583637394833 -0.21371849563945727 -0.12295837531530888 -0.08040225999489152 -0.17697198351996157 0.20860168303351614 -0.054264665787843537 -0.33184133332793231 0.14409402906776775 0.23444314658268811 -0.0079680373735491958 0.41896905397387019 -0.046497245292077868 0.051704312936349139 0.04639146224524434 0.12211778979377101 -0.30451745125333113 0.080294251450300558 -0.079408671132260231 0.13161579770103482 -0.10118527448020292 -0.075604574817218204 0.13902016803613149 0.047088984679789989 0.20149536892687597 0.036875422884507521 0.36012654847781056 0.2856071040414267 0.018542563356139654 -0.33060819160350785 0.11007536012218033 0.15638888825154612 0.27193591959129343 0.31960135991715694 0.25657861000800058 0.15235621886182463 -0.057876744619208532 0.17965648504377854 0.10946331209648708 -0.030627488446961761 0.12612232704276102 -0.025100384541229911 -0.012988681506603081 0.11925852283889554 -0.15364831064860629 -0.15495932835912979 -0.1188691488354367 0.21118425519873008 -0.099071700151860634 -0.094939371700675748 0.17477310604941748 -0.19310235880288579 0.020662951599901558 0.080774545065907255 0.029661868748693993 0.10518485897884092 -0.01182969139599062 0.32836660371280335 -0.095071706932731481 -0.060194267585501733 -0.024674992851113492 -0.13744099929637343 0.041278956378922343 0.095920230716866756 -0.19680964286747349 -0.12223893454727452 -0.14035684576122068 0.091509317700471493 -0.14849206540933213 -0.3148775914296405 0.13281796969434223 0.016384487470844696 0.074373983794752269 -0.024893664151401488 -0.13054805231015809 0.082833588362662178;-0.15473441512111247 -0.010686899321883245 0.11651500307843085 -0.27723930297971422 -0.14836621940748396 0.22382393972729958 0.010020838018606282 -0.20785107605783879 -0.16212716552335255 0.17681160440077315 0.21419224489706407 0.16488374504148071 -0.28575067755009398 0.18940751866475766 -0.00021305050787687966 0.17177499977708499 0.12082339291868248 0.19161031804128531 -0.32641699389506651 0.003033427009309142 0.067902706040565017 -0.15306758347470881 0.25629317570494103 0.13053371027270372 -0.10415362540592997 0.19414451221429951 0.068038752823419743 0.077781845532378033 0.053185044080043951 -0.018217300714796561 -0.18231320748249077 -0.13512827640133485 -0.17575150202924392 0.037941450861947265 0.001743894365726106 -0.25621600709231007 0.10916344956005637 0.01641338433781454 0.24744418352497127 -0.31361360708894165 0.088386035254349099 -0.078308353295125213 -0.12162882489532593 -0.25714048982473875 0.26745027962224815 0.074172681708811875 0.012042029632718687 -0.0044484552171123338 -0.19184751507963096 -0.27866947600710912 -0.047017319677668264 0.031027784041248091 0.078769406177925369 0.071828693551071923 -0.21058233008795282 -0.053087943817496659 0.084174920856395108 0.031563360023253578 0.26313576462855814 0.0078369927270312573 -0.026819927748263042 0.016515978507866184 0.21895869531968057 0.33472427029703411 0.063606858324416843 0.11724806790083682 -0.069195326291488127 0.14730989825962618 -0.048175060061381218 0.14093648495169905 -0.11685465193212731 -0.23629519261092508 0.17936801928187693 -0.13724975757807018 0.038878605052667228 -0.067110131732592351 -0.15452566631226278 -0.052350006813324079 -0.25497044101450872 0.18135575462681114 -0.13087129680050669 0.10921560375768354 -0.12510855142256594 0.23512222242211014 0.028287738871341284 0.00086836468697810217 0.083199020120044348 0.21053671033794377 -0.11060368366527905 -0.2445716005046418 -0.11150500577486967 -0.15022475535260801 -0.15781667834837837 0.067154173996685065 0.1257271221827089 -0.21824980702298782 0.25212699482719164 -0.22769959870668616 0.15005399435465633 0.10065316073688738 0.16615006004213675 -0.063006395381934741 -0.21429802105563608 -0.24938629134273993 -0.028445774296602656 0.3242455271079086 0.23766003660598026 -0.036983614153910653;0.044730522660520911 -0.034570211773405177 0.068133710390428356 -0.17947771044421437 -0.11711258967200268 -0.069542425179872192 -0.092240680059323843 -0.043565884637311411 0.064069784008349256 0.17140751182863362 -0.0014332086004966399 -0.063279135064633632 0.19530633492498445 -0.24857572476593995 -0.086606283869698819 -0.19311029821313463 -0.065934829871957396 -0.22751207606478485 0.19601524902538828 0.15530944804191107 -0.20556708173237168 0.13327858299969844 -0.092461479252880729 0.18540814383432186 0.12673100316400365 0.083794569402764973 0.10066039063408927 -0.17191779707875296 -0.18495732785053651 -0.19710843294947211 0.082682722797362329 -0.026360845613538846 0.019641058457078066 -0.16502851025946133 -0.14890547162749257 0.020574745063782651 -0.1397024690554812 -0.057303710389380723 -0.17141561483870271 -0.22783924348790396 -0.19185406702723592 -0.033699586528428228 -0.12741505924086613 0.17846510067032739 -0.14208615438154151 -0.23400103452470192 -0.16381969223474471 -0.18301177150463802 -0.2047512339256731 0.029446963214399824 -0.087782744787330433 0.1451074101988874 -0.048794711504906017 0.021856590538221081 -0.1288001670693299 -0.060746696824857505 -0.24470726783831173 0.16692609466089278 0.020344271349791436 0.094623511160144821 0.028093082184593068 0.034959284195140182 -0.12369409155799814 -0.14225549960691147 0.10943406758464178 -0.0013678350677146366 0.19237503044290744 0.089307923482196669 -0.19055239322627124 0.13645882877573243 -0.05047702372205224 -0.14108593467599528 0.20978495475833173 -0.2135198962030527 0.091450540284330806 -0.1786352321573996 0.04304157414517646 -0.16264886624788152 -0.21211484564618194 0.028648135850724853 -0.070353388110874146 -0.20046579441306953 -0.11154803567081743 0.081001789780843686 -0.10951732817878169 0.046951184162034636 -0.12856603860243437 0.049169747057044487 0.17613433680971941 -0.11846757765830375 -0.22253915963946752 0.082541833682548929 -0.25463586203876226 0.18111495422496404 0.19081152677607227 -0.025530673302995521 0.22282072582442575 -0.070998992368708103 -0.029515076649953093 0.10990515249838609 0.17829984845975785 -0.16062303543112344 -0.22749733603151814 -0.088232384448313342 -0.077670569380152876 0.13602049507246958 0.15909076030235697 -0.220692415447649;-0.22888166146033548 0.32880108780790784 -0.23223080671759277 -0.11579346711420903 0.25673540688293511 0.30351001391239996 0.10059521960299313 0.046434872185541931 -0.0023183799380015468 -0.15875041391333045 0.047857538203147594 0.27089547904439598 0.41693706091974198 0.029776845475860264 -0.11529829037424082 -0.32600941561594815 -0.12091676948375277 0.093576056944923491 0.11287268643497632 -0.13754341758465591 -0.17432232891196256 -0.16404424546989987 -0.12964652976836016 0.20673556938098422 0.0060871866016276796 0.21131064134690278 -0.20234967332484152 -0.11205145895653142 -0.16132331441911513 0.16201589929382773 0.11796215815588966 0.10622869698087242 0.18629474854991104 0.07261036413541061 -0.074983633327228766 0.28632013023353819 -0.068810117557540643 0.37433461996596085 0.077597304218568919 -0.12253894802920959 -0.27489271231057288 0.088891371684566747 0.41137174218802652 -0.015734934699064056 -0.13074221207200165 -0.13517676544442431 -0.056602387778564779 -0.11308585570966856 -0.23793480030033357 0.52065937595528899 0.028108485972464063 -0.32871245212021349 0.12545573078185482 0.0032574500724636994 -0.11593398154583932 0.15495488194052592 0.33491398294479541 -0.039161775407625297 0.24990723118589708 0.23510996050734029 -0.13005976022817903 -0.29593352051672428 -0.16055909010071648 -0.25565663467008803 0.0051721590054113302 -0.025217911265117889 0.13792235319302978 0.099089757432454947 -0.0919705926901455 -0.00074101168920801506 -0.017885703376660064 0.069894229532801111 -0.049420479026787319 -0.087001628059626884 0.024916303591730419 -0.063361517644567655 5.9466097854093524e-05 -0.20404802867140792 -0.0056187791973003661 -0.26371813932925225 0.064977592753429375 -0.38065814578801843 -0.037610358638995971 -0.25149991818600304 0.20508170553793659 0.34049766527114805 0.19333924945199815 -0.034673479716706042 0.11762156471287118 -0.084324307351610214 0.14147098657211352 0.27138803169887399 0.27081775836279159 -0.41714409092631499 0.059992627667443787 -0.038702008215720403 0.070683130594238572 0.12872370016662329 -0.037766911963542628 0.12986134899047769 0.15181710269255444 -0.016758275606188099 -0.14737562576096103 0.030623432239751228 -0.20897196439811686 -0.16922267876140099 -0.021085217433452676 0.091135275366059781;0.096107071013874265 -0.16069866617716033 0.086929144959353527 -0.11634655140162459 -0.11192266675697861 -0.10010299810779175 -0.199489189409644 0.20119775610393612 -0.14952328911858825 0.26637718290971119 -0.059422217126093413 0.22757931284816577 -0.28458943564618117 0.017786803772769207 0.10201439711896682 -0.098592373011516715 -0.20933094967813604 -0.002614293589824361 0.18016452457120724 0.22206492727806312 -0.060365636817720315 0.11146163676483324 0.012344814410002182 -0.075727394208570886 0.1986960972656808 0.1619136511734611 -0.052111807317651401 -0.099445610361820092 -0.14806208931930712 -0.090541511049673978 -0.21272297569209248 -0.16939031886180533 -0.0077217707332544435 0.16092117989549964 0.059132189461380019 -0.11788982759138307 -0.064826820413600675 0.20052542735661918 -0.16421639072064717 0.003412053046190181 -0.07162548887967797 0.23515735822633368 -0.00011046484682897674 -0.22722969567243512 -0.072474716267923886 0.036680652037904646 -0.061081123558056838 0.14259554658503645 -0.15247052317371759 0.30414394048135002 0.13092886159868203 -0.02205611263480323 -0.11647293356286426 0.15662147481601918 -0.0028815593101310134 0.20398291680287053 -0.14359448298588656 0.22541462386276737 0.16809595223393953 0.067226442842576895 -0.054326956694194239 -0.12136771197620062 0.10242602363230058 -0.11019084543989149 0.11244009633714137 0.18962351418255891 0.22340564621554918 0.14573554607826442 -0.080904452915766714 0.10987114240713765 -0.21678981856660851 -0.20005171975905467 0.22914133766990588 -0.0844430430364638 -0.10687884116950039 0.040327472931984625 0.20184742057777669 -0.097572104439376486 -0.15445237868741429 -0.089670047694387633 0.19282777188215866 -0.2298233819793587 -0.13800688738146041 -0.22039434291265309 -0.013178903332058078 0.12830097218886974 0.0081038471947813967 0.091411605937450319 -0.023424375123380178 0.085128830117753948 0.15992653009511129 0.093512173553624803 -0.022132390519393096 0.045726268517392796 0.012822612847728121 0.19131993617936635 0.0071074216839762481 -0.0019525319375961426 -0.00086135634745874014 -0.00071615866528858892 -0.19995326435595323 0.0094828156618359232 0.17211520912388303 -0.0186750943312365 -0.25419717870299907 0.11651760621851105 0.10989255701599009 -0.031466315878569656;0.058614185157863839 -0.017258460009092404 -0.15020951039710209 0.19225458675106041 0.14679276441057681 -0.077159656185863665 -0.14864601813529865 0.14230521935642526 0.13970788090074154 -0.17052599073699684 0.12114217647176316 0.17498842475183399 0.025099628123818947 -0.20354590518909346 0.094509133854436322 -0.21130891847466407 0.17535200334095644 -0.22130712944992789 0.15420017935361538 -0.14590569918879145 -0.098270237639115826 -0.16106214170276556 0.041188368386942883 0.10469633134943727 0.083651090180304241 -0.07273113716990523 -0.12179378251940393 -0.095783979940411101 -0.1298438309252461 0.18506415638981136 -0.058748554745049086 -0.21502411905498153 -0.069209546438385366 0.15061801575248296 0.28821212550828251 0.28460170913161581 0.070592558007354048 -0.18159961408608305 0.0041358233379013322 -0.053073991983306458 0.11039024450816964 0.15755305874596054 -0.24711788862781212 0.18885161436876266 -0.13828242748172248 0.10052548261150189 -0.17537126237558939 0.20484783253592481 -0.065305603516389726 0.0076110329416454823 0.12692774180133537 -0.25178701581070373 0.061267519990866826 0.0090300642644427463 -0.017081395770744395 0.089174343579976736 -0.021861336958281848 0.14356799258403369 -0.032042177827455123 -0.059590632452233144 -0.0021432757789697 0.11618377451934066 0.059002265602867782 0.069962430532214057 -0.11673669330140016 0.11688843211453014 0.17482302987190754 -0.17799257589691905 0.070160582756548129 0.17604032122214136 -0.06468790134478275 0.16333268318934061 0.14080367826820267 -0.021713029375268856 0.086208829388122077 0.010180291646179231 -0.18329598520884849 0.0057437923680524524 0.041998350569130975 0.016247713083543832 0.21140729985582316 -0.068515271333711908 -0.076702368191541206 0.15791818359984625 -0.072481734620360713 0.17311938573886385 -0.16929164729048787 0.28479926761472418 0.27339035789918736 0.093487173812400223 0.17621214710328789 0.10758235770265957 0.085421572999675593 -0.14210779740509144 0.1305259247936115 -0.078722224549866437 0.24523957909916611 -0.23488084906593526 -0.19739057161084006 -0.16169619860260048 0.16369349377874276 -0.045066309757799572 0.07824141782161205 0.025446002861441087 -0.18161132815836398 0.028370706416470375 0.21961836358488662 -0.25074288300057629;-0.05602114608817288 -0.14312099912782317 0.12095625691579757 -0.11924766239063542 -0.070446601535255754 0.22180992489381066 -0.023824863322900243 -0.20230832664604914 -0.023432655192327085 -0.084956390897853479 0.0090294867566396656 -0.057351880419690755 0.010468166455327136 0.25261896764468689 -0.11656195977986221 0.060098144555497716 -0.072548604046272877 0.25471029136373852 -0.15840703680919394 0.1533648721516071 0.09168812598432155 -0.15360507512408755 -0.0060546120263141618 -0.0054642856814872383 0.079728506378461642 -0.25817971653425847 -0.12352147121190236 0.10910167108282628 0.022106765745603048 -0.065947214246835736 -0.21008000996953166 -0.15581103012510206 -0.015737970950182603 -0.12155272981103837 0.10089694221980784 -0.019272851445184869 -0.19236768108354999 -0.020051723558659803 -0.020590814960914749 0.010357515329903227 0.27122257944478662 0.024498556247880127 0.36312409555528669 0.17240301974449843 -0.23718795566129519 0.094231196223736116 -0.14552216701797505 -0.15641849155359983 0.21478542926295721 0.062889726818206773 -0.19029554744738439 0.24547677724973968 -0.0025057385032514223 -0.12081616914496729 0.2910197430811553 -0.3987473431793736 -0.20879172340841104 0.18935392284152755 0.076901702721567003 0.18156770209389311 -0.18818144507087148 0.039643091372141143 -0.16952253029367403 -0.087591647716425677 -0.12399778778272731 0.15766434917819777 0.14649244695637317 0.15787131879156344 0.22764043143286236 0.059312983502785729 0.20037794631344902 0.034216495308235208 0.024617569063380508 -0.12728684962700915 0.27363324675294465 -0.097846703569459056 0.32429817906914099 -0.11116861398004246 -0.069235078613717901 0.0078577847801313272 -0.057097375874982662 -0.19577353983706308 0.02355802556409543 0.30242563464142558 -0.13980642644690364 -0.32944466449715781 -0.20265007558125181 -0.032026712190840044 0.25524247898367325 0.30753653744636228 0.0025366422159945135 -0.35359141555340523 0.07633844701792257 0.22549299859290814 -0.0044608554101480732 -0.0040854982570993504 0.26598389274925299 -0.20362983454787675 -0.008338456322937296 0.21263765724299613 -0.024275710671397475 0.32903254668975174 -0.17148990239357434 -0.04034622285783003 -0.17220740681883567 0.00013310095255234314 -0.087025168314333365 0.22618336191774893;-0.17236640336200382 -0.11613897796750296 0.073884491767783597 0.19382859600915037 -0.073903739195037829 0.078656563159482093 0.20689334421453126 -0.17578595771739344 0.23358537473719049 0.014817186834967166 0.091901518364093132 0.25263577416757965 -0.044819488529346689 -0.20475614621355359 -0.16532974270518938 0.087201483359502882 -0.12242121167465253 0.25897786247486837 -0.030611095714411337 -0.15336045440647242 -0.027897199006958383 -0.07264172311659095 -0.11262271486861154 0.11845155321440108 0.10481431359536443 0.12792950045680729 0.26192016135258239 0.039287321819773569 -0.062449511475817621 0.052572164331889014 -0.1664504776236522 0.20960977702157049 0.050486246797112347 0.067173792135772986 0.2695559208848527 0.29196988068710888 0.063360593166521734 0.19859392518388336 -0.15041499920864182 0.14861831110639778 0.039520012305340295 -0.1331853622596442 -0.11822837878751329 0.21558376788058373 -0.078799137091419696 0.15458626708375187 0.052702306801119668 0.21833913603898703 -0.051200394305607806 0.033925880181854128 -0.021439676616458434 0.06384304283560234 0.093447401380228182 0.26737908096893109 0.048603123578037095 0.24408435350606014 -0.032762603187561169 -0.078666350814747613 0.048225839682799546 0.26109060616126939 -0.10346096279547054 -0.10122911625013208 -0.066457840874806343 0.036587422774425012 0.093036422341042813 0.28425733536002534 -0.011156914658294511 -0.17930500299142563 0.039292049831669847 -0.17165632317258814 -0.096080589758787166 0.1213184002884392 0.0059837810909025811 0.27909832160591519 -0.0331138244709972 -0.23877967493841165 0.21548738775606638 0.11743464624105436 -0.11589931493831959 0.29072600576800139 0.13636963509143288 -0.066190706884507663 0.026250363927899961 0.23027464389594823 -0.15789006245438264 -0.1278482263685887 0.034532047331993547 -0.18931961553481685 -0.12505199267663603 -0.006890066856418943 0.047629815897547313 -0.065200935499265103 0.16002289129419903 0.0096623039911551949 0.062367723867893819 -0.056403358291993416 -0.17580595473828556 -0.1866357885787559 0.16644102981347322 0.10177752780959057 0.11069440866821534 0.18004538876396103 -0.027140012191978667 -0.13106252841856827 0.07116296622170272 0.15860877600296897 0.15776344993559105 -0.063300804358780008;0.32128770886583335 -0.34918614255052033 0.062598834216522931 -0.11647611892704862 -0.21720983169246202 -0.080314776426786846 0.25235673062588077 -0.50371962104605161 -0.28149725627477973 0.014761926228072028 -0.2551174909028327 0.10752641304475739 -0.13733210789046446 0.10387909857788509 0.13586790869920518 0.1673348129764709 -0.21508417671665947 -0.077193043690810884 0.20117419471218939 -0.22366160037911439 -0.091993801150114338 0.2347987679942633 0.0241107307244443 -0.01670751954731358 0.16965445179468461 -0.23524038100087552 0.012787479782156814 -0.18631071972865781 0.040189540786264584 0.18152519322322069 0.057727527803545245 -0.18495282428953266 0.2197044547742745 0.0031827034874173316 0.05174128088301147 0.074273595929408145 -0.42290920439435875 -0.12752286086647738 0.0063787258520214647 0.36997014611478485 0.020491535590346967 -0.24740622226303441 0.021795392147748754 0.38038657937658632 -0.084437036539396118 0.1388076251132479 -0.015831049034411265 0.15352556989940999 -0.048231778935961749 -0.24119482570988704 0.11818801016035056 0.26206925091849514 0.13811553242427443 0.13754070520940134 -0.0044701848724798248 -0.035269181740230422 -0.089908943933473984 0.044858547935498219 -0.087334617748155569 0.24595344218048348 -0.15595852301235294 0.022427079196254505 -0.19188786810531916 0.0071761997053571037 -0.074866068325555743 -0.083128556314004023 0.18287573772865814 -0.21969473611639084 -0.12021508152640761 -0.066297978257003259 0.064626429275240746 -0.10674039483504812 -0.012252576344062864 0.2947608256558838 0.18241980770153002 0.049096680265356844 0.26808602512422497 -0.069835636482974195 0.27556026742437179 0.23696578920700034 0.19102859298303987 -0.14429803753042522 -0.1949995891818857 -0.21384535657577053 -0.14568478767800694 0.0039082523472206056 -0.13354419794753422 -0.025758563894522982 -0.082321218486875486 -0.1282987250005149 -0.049223388601304222 0.33773029615877503 -0.028540287635831794 -0.14983416504760202 -0.15211887095971197 -0.08369421924447118 0.12865238981706675 0.19584736476757222 0.13389842453041575 -0.13537790565012403 0.16482624710085181 -0.13632300201794284 0.17239447749476949 0.032667618166117587 0.044273617870589976 -0.16938194779169594 -0.053006489158917779 -0.021694700639015577;0.26482846395013171 -0.33033488530170951 -0.27822883190397757 0.076271770276647236 0.12029992829034837 0.11613493739110553 0.14199996386630964 -0.17813997475777479 -0.092618519215059161 0.12154415075791739 -0.26305866922357607 0.0710033227049265 0.2128366549536444 -0.0090114400301744418 0.13514397685738452 0.24950531289248265 0.095400873552442381 -0.069103360123082644 0.10801697501218337 0.013953838716400296 0.09602242775257773 -0.21167351850222049 -0.095502761746234774 -0.30768341293897133 0.010816636290750357 -0.089666088912423628 -0.080322540182888882 -0.14329492543485103 -0.44395329344500173 0.29154239661092274 -0.063764885485368961 -0.085346908699943408 -0.16912614248536317 -0.14769239408562668 -0.16778061093597732 -0.093569525305535847 0.11995170527237149 -0.028662072511054251 0.0022401425088779854 0.19213504668682541 -0.02894380517590325 -0.0065763487574360948 0.1062031758766538 0.18666186982760299 -0.10724270106559011 0.28146821958706664 -0.1656600347314533 0.14893990792004952 -0.090136022665729065 0.20438548877685095 -0.28572133822682433 0.57199945036678046 -0.11935061149913945 -0.2783355109798113 -0.040314052420134402 0.40027053312235661 -0.19004437929065746 0.1699800749790169 -0.32163025080813218 -0.16865434979202629 0.13878516712716379 0.21416425950900672 -0.038788417325316085 -0.20803229513574226 -0.013528977179384224 0.22859315850105952 -0.032910947374396579 0.34028898239774019 -0.11463105409690885 0.065927158840908703 0.17331612647610978 0.21140199695204479 -0.27553666140180627 0.019316137391818675 -0.24579039232045727 0.062959220299846005 0.1025635675820476 0.24566703745103249 0.33676040197694695 -0.095413520365764851 -0.033898852203397271 0.10502851526849014 -0.1423425487143741 0.19776216843385314 0.2053827385423089 -0.0092338786888583567 -0.19431417024434003 0.058232263428566494 -0.032858314702234485 0.1166273471388858 -0.026453204170519249 0.037776267714348721 -0.25435934175573066 -0.10018303772185932 0.10861855371116702 0.14086921399667759 -0.035674461108405185 -0.17844998786851862 0.084503860957666391 -0.0087595981296222439 -0.012293817031227781 0.045029273423984738 0.039180376533629775 0.030911491541797408 -0.20120893241901208 0.13092405570874671 0.13781536074418677 -0.11532365283111738;0.074835435978410539 -0.32785652290546391 -0.10329358785846067 0.20156743184181855 -0.12049091063344593 -0.16189415087574494 0.073749471480885967 -0.49572663960595081 -0.10945969586453261 -0.013274853580515472 -0.27802034384705232 0.19592158842429327 0.062142499304713487 0.050243823676320271 0.062417055191817249 0.14265445822658274 -0.13183346784065444 -0.19375391533337971 0.45005253418752789 0.16547779256517123 0.096880709632499382 -0.18686633126068544 0.20801416810918055 0.11388637565199049 0.21617939332340499 0.074251060726831436 -0.14624069184446981 0.1341029237224062 -0.43026769658292269 -0.049650924278857617 -0.091074506590572826 0.085510894764281864 0.071111378889230512 -0.045591334605274848 -0.040863160982181353 -0.070341131832792531 -0.16243903088134934 0.082424313852999809 -0.25538830436541554 0.25244688340458005 0.19467980743169633 -0.12180766239871352 0.25809511109937361 -0.17542159054831422 